2113 128
349 -3.4503994 0.23928142 1.5061169 -0.004630192 -1.0379438 0.3800328 1.402606 -0.89369893 3.3451118 2.3408544 -3.3213913 4.3899055 1.7164168 3.4589257 1.5845164 1.0427556 0.07489665 -1.169864 -0.09578599 5.509258 0.22367595 -2.0645149 -0.12154981 1.1419772 0.6092496 0.53517073 2.7539701 -0.13700204 -0.53966516 -3.466825 0.9787496 0.6979369 1.5940323 -0.7488407 3.4088116 0.73775715 -0.8192484 -0.99567705 2.435485 -2.3061388 1.1868978 -1.3065239 -0.42444232 0.6182931 -1.7173648 -1.3341476 -1.6823405 -2.1420996 1.9230084 0.2951893 0.4531284 3.0527756 -0.5928497 3.7799544 -0.43836784 1.2585745 0.4417534 1.179241 1.8682042 -2.8985229 0.92239714 3.2025995 0.0597081 0.0310873 1.8072245 -2.080512 -0.6670439 0.9990132 -1.4111156 1.3919597 0.7592147 -0.7726431 -1.9256213 1.7587969 -1.8613569 4.415491 -1.7705023 -1.2449551 -2.927105 2.2682958 -0.5417446 2.7797961 1.4386173 -1.0380304 3.5607927 -3.3503718 -2.6908004 -4.3167267 0.7810876 1.833952 0.0033826053 -1.1307814 -1.7331803 2.1564214 2.4442368 -1.726328 -2.675417 -2.5569718 3.4835477 5.885501 0.515757 0.2180387 1.2865728 -2.06835 1.4413807 -1.4970813 1.2764108 2.6736794 -1.2570271 1.9698261 0.5241564 5.583288 -2.7582884 -0.46070442 -0.1422431 -0.2628318 -2.9206157 -2.849657 -0.91592526 1.755807 0.5978519 2.8789785 0.61870366 -1.0049628 -1.0230373 1.8727562 -1.9448309 -2.411574
420 1.4225527 -0.8920597 2.0248451 1.9156038 2.2212775 0.56348044 -1.3364604 1.1023203 1.2318355 -2.181177 2.2197127 -3.2834241 -2.723617 -3.0794344 0.29313073 0.9852404 0.52935064 -1.3768915 2.0120041 -1.7637137 1.6776619 -3.2102962 -1.4402112 -5.116221 -5.337742 0.99057865 -1.9877473 -0.119044475 -0.17194146 2.7400663 -2.859913 -0.016388912 0.46406955 -1.3725597 1.7174882 0.7494476 -3.2814202 0.45866993 0.17082362 1.7014022 -2.0039 4.7035317 3.7916389 -0.8534397 -0.052359894 -4.707929 2.7414849 3.3101718 3.714139 -2.0285606 1.3154274 0.50413805 -0.14739424 0.10802121 -2.8836036 -0.27830777 3.529765 -3.6398196 -3.473884 -1.9868163 -1.2949967 -2.1188529 -0.79753643 -2.922478 1.273083 2.0650306 4.090435 -1.2689565 2.047923 0.108613744 -1.8692652 -0.33206958 2.9538743 0.49056908 -0.6702961 1.0324515 2.5511696 2.9768717 5.095743 -0.08097019 4.0160193 0.33095127 0.6726426 -0.49600586 -2.0464883 -0.97348994 2.9160063 3.1348162 4.3511186 -2.4650767 -3.710618 0.3824986 -0.87585247 -0.55967224 -0.7859047 2.5520375 -0.7384695 -1.8071232 2.0934145 -0.38276947 3.4271703 0.5559744 -0.3717541 0.08951723 1.7061146 0.35386693 3.3524518 3.2452188 -1.2372178 2.216908 -1.8719444 -0.1590704 -4.15804 -1.8722569 -2.712306 -1.2169521 -2.7413056 2.4079282 -4.028282 3.9884953 -3.1071498 -1.0250769 -1.9196498 -3.2968452 1.5292231 1.2054553 0.8538527 -2.1487303
363 0.59690046 0.80303043 0.49830005 -3.919526 -1.4452914 -0.36904743 1.004611 -0.89745724 1.8525406 0.049008433 1.4799118 1.0843489 3.0677946 0.7187757 0.9080134 3.0541983 -0.6563809 0.50763595 -0.35679048 0.44831488 -2.5128727 0.41590136 -2.66014 -1.3580838 -0.078660905 -1.1344509 2.0340464 -0.5482107 0.82233477 -5.8105054 0.70767826 -0.6098059 -0.25842366 5.815201 1.2503666 0.4825257 -1.548934 1.7428693 -6.0198693 -1.0687587 2.9997067 1.1665294 2.8041532 5.263795 2.9694636 3.6344697 -2.5787659 -1.1864883 1.254426 0.5925199 0.6986535 4.5712986 -1.8722235 2.4479947 -0.23896046 -3.4133127 -0.052810054 2.689667 -2.4611087 -0.10670981 -0.26785934 -6.230123 -0.24502848 2.8449323 -5.097855 1.0275757 -0.7308217 -0.806934 -0.8391105 -0.54791206 3.016706 1.3329638 5.0820003 -5.959337 -0.3082643 0.42425755 -0.8155499 -3.129832 -3.6632578 1.0811744 0.19845505 -0.7546939 -1.2233956 -2.3857849 0.33462754 4.4975467 0.6644909 5.3290634 0.050289344 -2.125331 1.2873095 0.542347 2.0596473 -1.6427729 -1.7379143 0.6635197 3.3165236 -0.09925388 -3.235012 -1.2234321 -2.5800338 -0.75082624 2.8378115 6.0917516 1.2049211 -0.025550919 -4.4611406 1.2332703 -0.5936288 3.3301115 -1.477864 -3.9551709 1.206157 -0.29602882 1.2362237 -0.9451578 0.848538 1.6345452 -2.1150036 -1.7151682 -3.2352548 0.06694165 -0.7052733 5.7476125 -2.0067792 1.3142822 0.9021131 0.94773006
19 1.8213835 3.5380268 -1.4879979 -0.3712285 -0.64892876 0.1962795 0.8959012 1.6638037 1.7786349 2.8951867 -0.51396006 -3.083387 3.1014702 -2.0280383 -0.049569663 -4.2172594 -3.3800979 4.4962325 -1.9777693 0.51205224 8.158914 -1.4862529 -0.19995329 5.491291 -0.35220554 0.12579083 0.26692176 -4.3811903 -4.8979006 -3.2345874 -1.0319486 3.3988688 -0.3946696 -0.6990667 -0.82998735 -6.9293046 3.5391617 1.1564716 0.13405411 3.7950177 0.18702127 0.78177977 -0.12032419 -3.4686666 -5.0567985 -1.74204 2.3542101 0.6911363 -4.487261 -4.8128157 -0.7031988 1.8801398 -1.6580544 2.5877917 0.659001 -0.30026516 -2.5177665 -2.7195525 5.164531 -1.7893199 -2.4805791 -1.5565728 2.6175332 0.7687143 1.3685886 -0.49384046 -2.0350974 1.0900773 -0.6021143 -1.5472482 -3.9665089 0.05460888 -0.70788616 2.9794815 0.71078426 -1.6101977 -4.6711316 -3.8115835 2.0699039 2.1140823 -0.31472236 -3.1819005 0.5794759 -1.697312 -0.89859563 2.3703642 -0.92612123 1.0906358 -2.1873748 2.9219766 1.9255202 0.6161303 1.285986 -3.0868576 0.20986645 -1.0264701 0.82839364 2.8288188 -5.1231527 -0.60226417 -0.52025366 -2.0277305 1.9198002 0.12853347 -2.5094543 -6.711951 -1.420492 -0.58718497 -1.428935 0.9762634 -3.152753 0.48605475 0.6546127 -2.8151703 1.1720089 -2.514569 -0.8796683 1.2201881 -5.0739565 -3.284716 3.4321456 -1.1319988 3.0278137 -0.8721212 -3.8050857 -1.6301526 -0.52263767 -0.9811136
57 0.69853705 0.865979 0.15491854 -0.3809238 0.048721064 0.9727156 -1.6118909 0.9039212 -3.8148487 -0.39418745 -0.14220756 0.9750006 -1.7293656 -3.4018636 -1.5894191 -0.4629502 -2.7152846 2.1851027 -1.760081 -5.1368017 -4.821984 -0.99682176 -0.114456505 0.77304786 -0.6907154 -3.637693 -3.0689356 -0.58829284 1.3472275 1.3805611 3.6034427 -1.2666503 1.679755 -0.17554271 -1.2702324 0.83208483 3.4124877 1.8278502 -0.705321 -0.053669423 1.6676307 -0.99407804 -3.424304 -1.5689869 3.0998275 2.1927767 0.97524124 -1.7169039 -1.6679752 4.158426 -1.0648214 -0.9953175 0.3722371 -4.9507303 4.0660954 3.3322756 1.7394408 1.0435077 1.3910819 -2.7490356 1.3257087 3.3932822 -1.6006 -3.9497294 0.023774248 -0.7437528 -2.3348143 1.3123829 -0.65263975 0.35726476 1.7602183 -0.61654127 0.08544359 2.6663377 -2.0905704 -2.049535 5.299255 -3.7094836 1.3733869 -2.2240775 -2.3809066 -0.16689542 -0.515033 0.6594739 -0.04271494 -2.6985147 1.8590527 -2.506358 -4.140448 0.46860126 3.3458374 -3.9566066 -1.6046112 -2.0651927 -1.5116186 2.0476222 2.719462 4.738894 1.0592446 3.09318 -1.2736281 3.2324972 -0.7276682 -3.0739794 2.6866226 2.2672458 -1.2265954 -2.7368753 -0.37815326 -1.0773892 -4.711483 0.99928415 -0.6578247 -3.9858024 0.60199696 4.6972237 5.6600776 -1.480893 3.2888434 0.35035026 1.9512275 -4.367485 -1.5061278 2.4693913 -4.956091 0.019295104 -2.3634999 -0.21259552
1413 3.938599 -0.63273257 0.85825396 -0.77774084 -2.7833292 0.024597408 0.5810725 0.7482506 0.64642113 1.5867372 -2.7085292 3.8115 1.0759718 0.86505497 -1.4084846 -0.85103726 0.2962091 -2.1839426 -2.4516802 -0.76089555 1.1621178 -0.08540568 1.397832 -2.0088344 -0.10715996 -1.8785795 1.4166 -1.3872406 -2.3928332 0.18481387 0.61129713 -1.9103814 1.0511876 1.9863532 -0.9647011 1.0888678 -0.59612525 1.9078432 -2.3950317 -1.852008 -2.089923 0.73507875 -1.0047194 -2.129438 -2.8869827 -0.24999587 0.2621276 3.2424455 -4.1187916 0.11478671 2.4150925 -3.1675923 2.2799625 -1.9771646 -1.2173064 -1.5194721 -0.87884015 -2.865551 -4.9694014 0.7978329 2.5469236 -3.741423 1.2758826 -2.7244391 -2.2362936 2.8177595 2.9612675 2.247356 -2.597817 -0.38445392 3.1771986 -3.0891812 -1.5519024 3.2712946 -3.0968344 -2.6787357 -0.60891837 -0.8115609 0.937655 -1.4223984 -2.5424492 1.4357132 -0.93548465 2.3863707 -0.5527361 -0.5708225 0.9775123 1.826241 1.704918 -0.5979147 1.8448968 -0.19523667 1.8474399 3.0859387 5.394458 -0.8190228 -2.632484 2.7641904 -0.46527523 -1.2249202 1.1276643 -1.572464 1.4114977 2.0580387 -3.055625 -0.5670324 -1.8115978 0.6057339 -1.8149058 -1.2373862 3.053066 -2.935698 5.214605 1.4808195 4.237975 -0.37097773 -0.87193304 -1.8543246 0.9643317 -2.6071105 -0.45033756 -2.88124 -3.023329 1.5353506 1.2896727 -2.8124056 -1.5948837 1.070148
174 0.4405844 -0.4653287 -2.6256144 -0.48520836 -1.3276356 2.0138538 4.4579463 -1.8035853 -3.2225342 -0.99619544 -0.20707324 -3.6117206 1.5558089 3.5771232 1.8040425 -3.9354713 3.9249442 -3.544136 3.9032 0.6276788 1.8282242 3.9739947 2.6847816 -4.5479035 0.98676234 3.562448 0.32996425 0.62390995 0.21281631 3.7009516 3.205756 -5.011886 -1.5325711 2.2636223 -4.046581 1.3432777 -1.5684687 0.5635248 0.6922069 -1.8266014 0.587552 -3.7077982 -3.5341723 0.70441383 -0.5996376 0.13050124 1.4474111 1.2324765 -1.9582794 4.7736073 -0.44091862 1.4436749 3.7117877 -2.8121681 -1.249199 -3.1742792 -1.8987465 -3.3838997 -0.56527656 -0.26687863 0.16951688 0.40793917 1.5300549 -0.59312266 -3.1361284 -2.4326046 1.6762974 0.22809336 1.4074861 0.37793398 0.69692504 3.963178 -0.56962734 -2.3515217 4.497254 -3.0222547 -1.9803556 -0.99671096 -3.151805 -0.8473264 -3.1893582 1.7612138 0.7931185 -1.7642812 -0.66699713 2.9427786 -5.559784 0.42467967 -1.7360755 0.2220027 -0.7053421 2.0511072 0.22898488 -3.0094824 0.98852116 -1.1333648 -1.3963035 0.5509635 0.58435565 -3.4814405 -1.8016709 1.752512 -1.6144 1.0106107 -2.0578232 2.9807472 -1.2445427 -1.3218379 2.7798278 1.8882339 1.2523026 -2.0070977 1.1672229 -1.7598742 1.7754344 -2.1966414 -1.9648216 0.7572531 5.0209312 -1.611688 1.2647527 2.3159585 1.1550646 -3.09916 1.0360947 2.4167173 -0.856726 -1.4555259
77 -1.5407786 -0.08455726 0.50270265 0.7025632 -0.18818524 1.0929742 -1.2969474 -0.6399045 -0.1270958 -1.2344041 -1.3381664 2.6247838 1.6063901 0.8181097 2.0076823 0.5114252 -2.6226683 0.21820384 1.7042496 2.627404 0.019720564 -1.2485963 -0.67298377 -1.6329015 2.0133498 1.3791816 3.1173897 2.118493 -0.7685084 0.3458665 -0.38513365 1.009971 -0.4885149 0.15822779 -0.23218623 -0.06203509 -0.41902566 -1.4792207 0.89195454 -0.823024 -1.0158733 -0.20780316 2.7141767 2.4043746 1.2357053 1.9768023 -2.0118937 0.2240703 1.3569843 -2.1153944 -0.54293257 -0.92965484 -1.1937926 1.6881449 0.08082455 1.724989 -0.4330283 0.8758609 2.4261339 -2.1436143 1.4625772 -0.91394913 1.4853935 2.2108102 4.1180773 2.1727917 0.28182474 -1.4043378 -0.942977 0.057678558 0.8063082 0.39376652 1.4944409 -0.81452733 0.15692529 2.5874107 -2.148229 3.3950517 -1.0080669 0.17419738 0.77116823 0.5416311 -1.0443012 1.2513261 -0.88372755 -2.6973758 0.5639976 -1.9406983 0.08222109 -0.0566841 1.126475 -1.3426378 -2.1421232 0.12669039 -0.09701095 0.8100672 0.09514051 -3.66255 0.42385605 1.5319453 0.8786084 -0.3452051 1.3300056 -0.11303615 -0.62413466 1.082846 0.5386779 -1.2894564 0.9798265 -2.594637 1.964124 2.1535504 -2.5378416 3.234514 0.06714606 2.9799275 -0.53171414 -0.01972751 3.6487334 0.5856153 -1.6678725 -0.6302914 -1.7443445 -2.341551 -2.6018112 -0.15581416 -1.0842125 1.0399555
72 -3.3237216 -0.711359 -2.7158074 0.9711276 -0.13634744 -1.6096846 -1.3402953 -1.3163327 -0.1822275 -0.7209517 -2.2404375 0.785969 -0.69926244 -0.28505057 3.367177 -0.19219139 -1.5949879 -1.5688915 -0.94446653 2.8994193 -0.46432683 -1.1030089 -1.4872209 -0.51085913 -1.1028322 2.4830263 3.9172344 -0.53641903 0.14717893 -0.92495906 1.1909157 0.29486704 -0.8884581 -1.421928 -0.8311585 0.37743622 -0.1483619 -0.45394146 0.20275237 -1.3849312 -2.350097 0.64477056 1.4926311 1.4199418 0.01126888 0.2307238 -1.5224085 0.047885783 -0.5651964 -0.7754096 -1.6837701 0.43672162 -3.292872 3.4976702 0.45194602 0.77103156 -2.3545113 -0.6319508 2.5125375 1.3517965 -0.46687156 -1.2976745 1.5294423 1.9978864 3.4090989 1.4299991 0.20177634 1.5169235 -1.889961 1.1584096 -0.66735727 0.46291962 2.186028 -1.594317 0.6648204 2.7098203 -0.7957162 2.3742907 -1.8321139 -0.7247811 0.8733813 -1.0186905 -0.91663605 0.6535848 0.6333247 -1.6815666 -1.1439227 -1.1483223 0.26402247 -0.15015642 -1.8319019 1.4424131 -1.7304178 1.0084358 -1.0377659 0.85273623 -0.24006224 -4.250807 0.7795153 1.2768633 0.065433 -1.1860873 0.8726295 -0.21547836 -0.6592105 0.6086922 3.0057194 -1.4506248 0.10534983 -0.47039986 2.9962685 0.11629367 0.5374403 -0.3716855 -1.2271004 -1.6591055 -0.41932803 -0.6534345 2.7554595 -1.5291876 -0.5444036 0.44355017 -1.6995373 -1.5990517 0.13673249 -0.3963411 0.35671285 0.34757927
142 -1.9421915 -1.0883821 -0.85107845 -1.8349218 -0.25695854 -1.2644024 -1.1233821 0.019956175 1.727165 -0.81463563 -2.042991 1.2715313 3.1099498 -2.750278 3.264948 1.424118 -1.7782822 -1.5485328 -2.184552 1.3245605 0.10511626 -4.343096 0.14282747 1.4531518 -0.5334888 3.6567562 0.7090095 -0.7909755 -2.0169864 0.7716063 -0.33499742 1.0541066 1.3781346 2.5262365 -0.40377092 -1.5674052 1.7963578 -0.15957198 -0.89234835 -1.4523823 2.0754123 0.94942397 2.5245526 -0.5306182 -1.2806001 0.8004515 -2.5141685 1.3875314 -0.22020267 -2.4149995 -1.7733817 1.3027638 0.5839452 5.355204 0.65216476 1.4956503 -0.2474971 -0.6866238 -0.7995083 -1.6068757 -1.542785 -1.1491883 -0.0821848 3.1762245 0.85473573 2.9001045 1.2553806 2.031498 0.3180464 1.0866027 -1.042172 0.51721656 1.5147916 2.4716036 -0.60479987 -0.13975936 -1.5090201 0.8910259 -4.641637 -0.06051741 1.5877087 -3.0203292 2.5456927 2.690006 -0.40158466 0.24970524 -1.1133597 -1.0508219 4.353189 -1.8211936 -1.6391611 -0.010558851 -1.585867 -0.37816605 0.8987497 0.9266289 -0.4742307 -2.7421305 0.07627617 1.9625889 0.46070796 -1.2767711 -1.0823004 -0.84450513 0.38837546 -0.7293649 4.032203 -0.13696687 -0.8919188 1.3522962 2.0895462 1.0374731 2.0238588 1.6854024 -1.4053221 0.9472088 2.0507956 1.1490315 2.4700818 -1.0250003 -0.9601138 -0.79997945 -1.415402 -0.2826658 -1.0493572 -1.8442436 -1.6857098 2.522752
1079 -1.063818 0.009092166 0.047495186 -2.315771 0.1623041 -1.3702556 -0.18572468 -2.4323807 0.8492637 -1.3472099 -0.49716824 2.485522 1.454993 0.7749795 1.778327 1.3027253 -1.5427866 -2.052673 -0.5646384 0.74375796 0.67414904 -3.5640013 0.26397797 -0.73200595 0.727113 2.8046396 2.6373494 0.23437238 -0.8755469 -1.2845732 0.2442139 1.8576423 0.25080407 0.014926896 1.189892 1.0203722 -0.20988281 -0.7333471 0.39066252 -1.5170616 -0.52684915 -0.736629 1.4123358 1.660115 1.6787266 0.6870767 -1.7539573 -2.8415248 -1.7645382 -1.2540756 0.06532081 -0.08254014 -1.2796358 3.0439065 0.30994034 1.375793 -0.5888854 -0.22578618 1.9216353 -0.02298447 3.1428757 0.18934193 1.8674878 1.6361072 1.4125571 1.7479024 -0.4267769 -2.2356308 -1.0907129 0.41803178 -1.192001 1.6540773 1.6307346 -1.168144 0.19609591 1.5387462 -0.42949048 2.326678 -2.1409457 -0.87657106 -2.9375944 -7.100326e-05 -1.1840566 -0.59895205 -1.5166764 -1.3261532 -2.469157 -2.3088238 0.8101467 -1.0316304 -0.54145974 -0.3614213 -0.6005844 1.1943294 1.4591727 -0.005876129 -1.6331667 -1.8703034 3.046856 -0.35229614 1.1225863 -0.87516457 1.2321919 0.48058942 -0.19807671 0.42883447 1.5675822 -2.2174966 -0.101168185 1.2427343 3.1627517 0.50400865 1.2145574 1.1844333 0.057329383 0.14671881 -0.95462877 -3.6477113 1.9338679 -1.2735156 1.4452924 -0.09616522 -1.9524283 -1.3464186 1.7247043 -0.4563616 -0.21034367 -0.06936802
794 2.9685652 -1.1598885 0.26707968 2.4397109 0.9413693 -0.6473878 -0.6919982 -3.2858374 -4.437332 0.26631096 0.20092876 2.5283532 -0.6381513 -1.4225273 -4.9715767 -2.3788548 -0.40112573 -0.07029233 -0.88314253 -0.37645817 -0.8134867 4.2816696 2.1608944 2.849779 -0.36989167 -1.9006112 -1.4123498 -0.5579188 1.6083443 0.39188305 -2.6881227 2.2210982 0.9493462 1.0429462 1.3712373 1.4977101 0.4369433 0.62649614 0.38234866 0.6161196 -1.4142886 -1.2787222 -2.6275444 1.8343936 1.8141586 -1.7718575 4.002907 -2.4608667 1.7057525 -0.03800931 2.117865 -3.0164657 2.1240647 -3.776126 4.335394 1.1716655 0.815118 0.64677143 -0.9421063 1.7162532 0.3947121 2.0493848 -3.3432705 1.2537767 -2.0769868 -1.6755627 -3.7337847 3.5657477 -2.002922 1.9615608 -0.2820938 1.0595977 0.7869237 4.8435383 0.9252887 2.0090253 -0.8405238 -3.5905008 1.4119201 -0.7616855 1.6739147 0.8289708 -3.691504 2.2695487 4.5618277 -1.5210059 3.9745543 -3.6597872 -0.7722507 1.2817073 -0.6036064 -2.9141624 1.5399953 -1.5939476 -3.9584997 0.6374417 2.4527316 0.6457381 -3.482387 2.6108882 3.0568628 -3.2377157 -4.7398343 -1.8223599 -1.1284275 0.4292772 0.4184769 1.046139 1.6904025 -3.3099797 -0.69422597 3.3259335 3.1591437 1.8068289 -0.18261005 0.18402065 5.671036 -0.2931204 -0.9288309 -1.8103007 2.253862 -0.29356322 -1.3100617 1.6787418 0.21887283 2.533656 1.0410315 1.1485502
68 -1.0818684 -3.651243 1.25487 -0.32086486 -0.6221337 1.0670241 0.99058807 -1.7710216 0.8064112 -0.66172194 -1.4696298 0.18311596 0.047915634 2.1881278 2.1381192 0.910372 -3.341534 -3.9985225 2.0908403 1.086188 0.07118703 -0.7678095 -0.32466 0.4750309 1.0404928 1.8859768 2.9222748 0.38120702 2.1297326 -1.9475647 1.1986806 2.5086584 1.1433157 0.6230046 -0.42252252 -0.067261964 -1.4160237 0.12601571 1.2462641 -1.6874205 -1.0570412 -1.1499145 0.5816541 0.4012449 3.9409235 -0.18942262 -0.062948704 0.25646773 0.6386075 -0.9530432 1.7571535 1.4539317 -2.2661147 3.5431056 -2.355213 -2.1743603 -1.3266071 2.5362966 1.5315847 -0.24489185 1.2733067 -2.012098 -0.6906277 2.0125227 0.48632833 1.6347771 -0.10219217 -2.832742 -1.7884378 1.6287411 -1.4400126 2.8435917 -0.53549445 -1.6847429 -0.81562555 2.810288 -1.6678522 1.5271504 -1.7023675 -0.4863234 -1.0550537 -0.1339816 1.0605171 0.44172534 0.9357271 -1.2257231 -2.9594297 -0.96170205 1.0782455 1.6155304 0.66245145 -0.97786695 -2.0906477 1.4682143 1.1031466 -0.015431512 -0.4647363 -3.381483 2.6058383 -0.7362974 -1.7835866 1.1884704 0.47467366 0.21897893 3.6097383 2.3557134 2.1998897 -1.898638 1.6887157 0.0624284 0.29082754 -0.21762265 -0.54521877 0.9779903 -2.066283 0.3726094 -1.2283287 -0.95014936 1.6458514 -2.1392496 -1.1310114 1.1786447 -1.1258817 0.04376272 -0.3041342 -0.521324 -0.38055822 -0.45390707
74 -3.3767045 -0.71079636 -1.4747288 -0.20081356 -0.23182903 0.16245976 0.12280056 -0.4478451 1.3240808 -1.5544999 -1.2305442 1.9581805 -3.3163474 -1.0866123 5.4635005 1.5405148 -2.6437016 -0.3721382 -0.9911271 2.7522166 -0.4236497 -1.3327372 -1.1579484 -2.9453206 0.48654214 2.3888204 2.4146008 1.5167345 0.8637745 -2.2447355 -0.038705144 1.3494291 1.6845397 -1.0155789 1.0477191 -0.050066356 -0.5585178 -0.8773206 0.011104937 1.3933483 1.008225 1.0241369 1.4079268 1.802404 -0.23832877 0.29938766 -0.15211724 0.7893436 -1.8830701 -0.6115613 -0.2253148 1.0478783 -3.0966213 2.5507524 -0.6776565 2.0686288 -2.712653 3.5760202 1.0394036 1.2940345 0.43640146 -2.6939607 0.36071062 1.4965758 3.2918694 2.589447 0.43940887 0.7395673 -1.5499424 -1.1201146 0.8242528 1.85543 2.6698902 1.9694242 2.3152585 2.5846572 1.1839908 1.3057133 -2.3905156 -0.8936191 0.5581014 0.027054649 1.0625151 3.7976165 -0.96349716 -1.91584 -1.1343132 -0.9062418 1.6583662 0.14716879 -1.9066234 -0.9013976 -0.5431705 1.573732 -2.2176237 0.08563586 -1.5991117 -1.8973132 -0.2462679 0.65841955 -0.47802135 -0.9249912 1.4590923 -0.20665984 -1.4810869 -0.98412764 3.1612256 -0.7276287 -0.5008715 -0.9519856 2.4636881 0.5535788 -0.7941393 1.1555028 -0.7401876 -0.7032755 -1.3210479 -1.1532309 0.3131168 0.47504696 -0.8151264 0.72341543 -2.861304 -1.036161 0.979808 -2.8277018 -0.21457355 1.0814036
65 -1.6590302 -1.1061993 -1.467331 0.4216192 -1.0491827 0.08719339 -0.47152457 -1.5299294 0.8491837 -0.65049595 -1.3816434 2.2970798 1.6890172 -0.52987486 0.8637535 3.3995116 -1.5434324 -0.52106607 1.2807255 0.6637378 -1.0365353 -2.3271127 1.2436181 -0.78440994 0.28867093 1.3186107 2.1666799 0.08916653 -0.65679574 -3.199004 1.2274325 2.0390778 0.59532875 -1.7420709 -2.0335839 0.81916344 -0.14625089 -2.1029522 2.3374956 -0.9825052 1.5296346 0.11953641 3.8349736 0.18444726 -0.18763101 0.86261785 0.83280694 -0.09439014 -0.034770716 -0.6640603 -1.3750077 0.9226042 -0.93223035 2.3460932 -0.65995663 0.9581788 -0.81860656 1.5222487 1.9209952 1.237248 1.2745311 -0.0799391 0.070485614 0.57820624 2.0693138 2.0074708 -0.03809874 -1.5856124 -1.0533565 1.6907636 1.6684438 1.8517647 2.6006107 -0.094002515 0.10674687 2.415869 -0.2695851 2.7543955 -1.6886841 -0.17399116 -0.21367592 -0.57045174 -0.97385204 0.5074829 -0.076054566 -2.1167738 -1.208541 -2.0900033 -0.052855976 -0.27251074 0.91833365 -0.77410185 -0.25515744 2.3253627 0.5459902 -0.5457563 -1.401331 -1.8830088 0.18509465 -0.4604091 -0.25316966 -0.9851334 0.17193617 -2.0053744 -1.7489098 1.2266148 3.1128492 -0.056427676 -0.04825285 -1.1337782 1.4390292 2.3300486 2.1367087 0.90800935 -0.24732949 -0.734062 -1.2985289 -1.7985924 1.7924793 -1.2927562 -1.5803007 -0.6212509 0.38172346 -0.10223127 0.797959 -0.9781466 -2.1424806 0.38093588
83 -3.509945 0.7806135 -1.6034948 -0.1083295 1.103558 0.25294492 -0.8445681 -0.4739998 1.9265459 -0.06258416 0.955753 1.8518866 1.9294661 -0.712293 1.4927503 2.5357566 -0.4506185 -1.2992284 0.9698297 -0.6184139 -2.7120786 -1.2903866 0.747262 -0.009472126 -0.58075124 1.2387002 3.4382463 -0.8048739 -1.4200077 -0.96013933 1.8341992 2.0392318 0.11238804 -0.70548767 1.0757306 0.63160914 -0.75735843 -3.3096507 0.47847208 -2.0968451 1.4395386 1.0124667 3.3835387 3.3884065 1.1184142 -0.0039566243 -1.0714037 -1.7971921 0.08440474 0.12588874 -0.5770795 -0.37210742 -1.5447545 1.8764567 0.7507956 1.9710348 -0.60635066 1.6613002 0.6579672 -0.7230753 1.6246837 0.4475282 1.0970888 2.3811965 1.9658449 1.7243816 -0.3680135 -1.2889129 1.5559524 1.0869054 -0.67958546 1.7085533 1.5912408 -2.4498994 1.8756195 0.6517879 -1.7133869 0.34163404 -3.7844784 -1.4760426 0.857218 -1.9068965 -1.9054517 0.48963407 -0.35639238 -0.45755842 -1.0310652 -1.9514681 0.19220898 -0.16603102 0.8479893 0.36942983 -0.10169915 2.2653208 0.26755568 1.5590379 -1.4101918 -1.9119829 -0.2794559 -0.32965592 -0.57216257 1.26714 1.3501219 -0.3157286 0.074246086 0.6178899 3.4399145 -0.055271372 2.1039093 -0.38257265 2.743637 2.554937 -0.08454164 0.8492298 -0.6830522 -0.26404792 -1.6569496 -2.4626524 3.090313 -0.34529132 -0.4309574 -0.25727445 -1.2523767 -0.31338033 0.0024645568 -0.43863198 -0.32816476 0.17922305
56 2.5072367 2.4676952 1.6343778 1.2257501 1.6723878 0.1138711 -0.8760957 1.4992007 -0.5489372 -0.47616914 2.3871472 -1.5742873 -2.5579927 -2.0924945 -3.8490443 1.4248419 -1.0111969 1.7427835 -0.8418137 -5.654549 -4.4053216 -0.051598676 0.7066653 0.8687181 1.8227824 -2.625801 -1.2304679 -3.7541568 -2.0848527 3.8905022 -0.40261787 -0.73175526 -0.9129736 0.26932138 -1.3230611 0.59055775 0.83824235 0.102857605 -0.63802797 -1.6607227 0.81081545 0.32263362 -1.2493453 0.7254583 3.3338723 0.59670925 -0.97018856 -2.0625434 0.3825456 3.4105203 2.805863 -3.6644957 0.19860068 -2.315753 0.92556214 0.52742654 0.42697996 -1.1718632 3.941678 -2.4310186 1.0824226 5.371322 -0.72542423 -1.1565299 0.42172018 0.7315388 -1.0913068 1.7562855 0.8917971 1.8837456 1.2618704 -0.7053303 0.48995125 1.4868269 1.1896052 -1.0651094 3.2619417 -0.4520367 1.9227252 -3.3066983 -1.3766404 0.2542526 -1.878888 3.303922 -0.38515785 -0.9113715 0.87844807 0.025865266 -2.047958 -0.37041226 3.3356638 -2.1858382 -1.8024108 -0.41507277 -2.11796 3.9462104 2.5407484 1.977127 0.120174386 1.4424211 3.5012286 2.446423 0.405325 -2.8317504 2.5965843 -0.41030782 -0.1681959 -2.258581 0.41550496 -2.0910702 -1.8821863 3.5528243 -2.2939384 -0.77392304 -0.30929706 6.4173675 5.435414 0.74029106 3.3512566 0.124352 -0.48913047 -2.9982052 -0.15466851 0.6177923 -4.422125 -2.2468524 -0.66368276 0.797359
1067 -2.7238562 -0.46971703 -0.28810802 -1.8430414 2.0887644 -0.6256276 0.29989645 -1.0234616 -0.31592214 -0.24261951 0.99859065 2.0064042 0.55869454 0.21633801 1.7574874 -0.045538273 -2.9438028 -0.56830555 1.9383878 1.1958412 0.40370488 -3.4530075 0.16593443 -0.27279526 -1.2257102 1.3347478 1.5992007 0.22407742 -1.6760831 -1.2646502 -0.18770178 0.26746267 0.86175054 -1.433208 -0.599319 0.75499755 2.306676 -0.36480573 0.96861607 0.6387246 2.116299 1.4016578 2.3073373 0.66937655 -1.3491772 1.103528 -2.1273165 -1.7204587 -0.061356638 0.89134514 -1.5764536 -0.7141127 -2.4056365 2.7257204 -1.5737936 2.5177891 -1.5665532 -0.1612898 1.6325246 0.45204487 0.016241586 2.1584854 0.47325954 1.4901546 3.8857393 2.6526513 -1.0128886 -1.343871 0.0015442736 -0.11091827 -0.337743 1.0270509 0.130709 -0.42673677 0.3905091 2.2896848 -1.7049214 3.1831052 -3.3344636 -0.5755043 -0.96855074 -0.1525291 1.1916839 0.96019816 -0.26751179 -2.5939336 -2.6374762 -0.64371085 0.15455404 -2.8503532 -0.5630449 -1.075279 1.1347368 0.2666109 0.100123614 0.027711127 -0.8173704 -2.5033703 1.4392586 0.8150605 0.97118884 -1.2336849 0.060369253 -0.8492246 -0.18920256 -0.88308054 2.4654639 -0.8223244 1.2899094 1.6465302 0.39768523 1.6640176 -1.3954391 2.3856726 -0.2423867 0.11528097 -1.4229143 -1.0921525 2.472866 -1.7264615 -0.5046921 0.10823073 -2.4306238 -1.384509 1.5025558 -0.9292961 -0.26572487 0.46523336
511 -0.53771114 -4.066335 0.7694317 -0.82106864 0.4047819 -1.1898475 -0.66174906 -2.414912 0.83071095 0.8810598 0.086856656 -0.6709277 0.7649445 -0.23126484 1.8670411 -1.4980284 -1.1552747 -2.35834 1.6299776 3.4089272 0.07994145 -0.30788693 -0.8792758 -0.2129666 -0.097628035 1.6677177 0.7661729 -1.2106159 0.06600854 0.87012327 0.91151357 -0.0096470965 -0.1766007 -0.27283725 -3.184492 0.5129628 0.7602865 0.7825488 1.870983 -1.2497051 -0.8641512 2.9753551 1.455221 2.0187137 0.88990223 0.254898 -2.108871 -0.7713636 -0.190824 -2.4234118 -3.0032432 1.198607 -0.4347068 3.188359 -0.7506988 0.9150502 -1.6754905 0.16426717 2.8220775 -0.15250188 1.8916532 -0.6680972 -0.32030615 1.0350293 1.3795803 1.6998373 1.697938 1.5013865 -0.64409536 0.15658219 1.618922 0.99781954 1.8931972 0.44420433 -0.9342236 1.9265302 -1.6813555 3.354033 -2.8216605 -0.89446574 -0.44501886 -0.41007072 -1.1972581 1.1830657 2.1448615 0.043566715 -2.0257761 -3.4136477 0.6712032 -1.0467374 1.088898 0.39356163 -2.3227568 0.048120417 0.16264844 -0.71630526 1.3562719 -1.6443727 0.7549809 -0.34586534 0.63840383 0.041095376 -1.7622876 1.1203114 0.079022445 1.1364453 0.7498816 -0.071880475 0.053013045 1.1805445 2.4410372 2.956349 1.3651963 1.8573244 -0.3864131 -0.5005002 -0.8360915 -1.7940289 2.7978027 0.46122524 -2.258184 2.5529351 -2.213634 0.06151087 -0.44411024 -1.2101645 0.51618534 -0.613221
66 -4.652439 -2.4254649 0.59315294 -0.051028613 -1.7619811 0.24471927 -0.54765 -0.45320216 0.8977872 0.65178174 0.34799224 4.089306 -0.35253978 -1.2487097 1.7912192 0.29644936 -2.271386 -1.6605403 -0.86761653 0.08599298 -0.85982955 -2.0013134 -1.3177801 -0.78948003 0.7721168 0.4356089 1.2230926 -0.35513964 -1.4529651 -0.7908456 0.59496677 2.4546244 0.76492506 -2.0609682 0.21879868 -0.8644629 1.1108131 -1.8596886 0.9249484 -1.9426136 1.1489904 -0.35622892 2.3045936 0.46074957 -0.6081943 -0.65310633 -2.7057934 -3.5372844 -0.9153999 -0.37814105 -0.91969323 0.29555586 -1.1628076 2.6221952 -0.7171214 1.0700958 -2.1951046 0.7491322 2.264011 0.8581827 0.98209155 -0.089410074 0.41095045 2.7169673 3.5707746 3.1040263 -0.14791277 -1.6300619 1.3230718 1.3937889 0.7159197 0.82613766 2.0575306 0.63291806 2.000957 2.5787723 1.0490566 2.341478 -2.0378478 -0.3202054 -1.5644708 -0.45158288 -0.22162989 1.5203071 0.76746964 -2.6346707 -0.5355329 0.37539625 0.832024 -0.91442424 -0.82784283 1.2170669 -0.36577678 0.6620423 1.5229864 0.95764434 -1.9053138 -2.0657766 2.5624132 -0.038347423 -0.69191104 1.8429453 2.2222526 -0.15846743 2.129646 -0.70976174 3.5478444 -2.6495392 1.1758012 -0.6154339 1.7690399 2.0071716 -1.9974326 -0.08352368 -2.6019807 0.14218299 -1.748288 -2.1272082 2.6701946 -1.8220007 -1.5663737 0.66273814 -1.154097 -2.0635512 0.8423252 0.06085684 -0.9723388 -0.49895993
73 -3.5818062 -1.316058 -0.91013294 -0.022156516 0.3996333 -0.90324926 -7.496638e-05 -3.4288278 2.389425 0.7131926 -0.22809558 -0.040782295 -0.89661056 -0.44712907 0.98871464 0.9240082 -0.5308072 -1.9126775 0.89173275 1.895321 -1.2272687 -1.3788446 2.518884 -1.5433698 -1.4263049 -0.045074012 3.397119 -1.2181379 -1.3606659 -1.0039554 0.30888504 0.012451975 1.6819146 -1.2892246 -0.8991744 0.8128015 1.2192676 -1.5646071 2.1849408 -2.2008748 -0.644999 -0.15892974 2.4465106 3.3690948 0.62792754 0.5405869 0.18142444 -1.8940275 -1.1972389 -0.4130223 -0.9730779 0.44880313 -0.41001445 3.666139 -1.6715865 2.6702666 -1.4048878 0.35155624 2.3325257 0.24154949 1.8106039 1.3340119 1.0333899 1.9872469 2.3614182 2.0621116 -1.757211 -1.5015577 -0.29136243 0.64869815 -0.14533237 1.240132 0.5910049 -0.7833701 0.23026715 2.6139922 -0.62362766 2.3933868 -1.6769114 0.2748353 -1.582334 0.17041902 1.0975733 0.69065267 0.48450652 -0.8106264 0.6150175 -2.028732 1.2161384 -0.36990896 -0.28901902 -0.9471265 -0.091368265 0.89314526 1.5060922 -0.9776435 -1.0321349 -1.4960443 2.3869693 0.865008 -0.6079249 1.2233009 1.6553239 -0.6302763 0.53600526 0.43951356 2.2509825 -1.099007 0.08784215 -0.98615766 2.2746236 1.8266747 -1.6374278 0.8759617 -0.88331133 2.0431087 -0.23705845 -1.915827 2.4779503 -2.3796756 -0.5210742 -0.028719908 -0.9506378 -1.1663561 0.6849875 0.52818805 -1.8401783 -0.75215673
1103 -1.7163622 -1.9373038 -0.10837167 -0.32148364 0.28791267 -1.4435503 -0.09216967 -1.5717368 -0.7554862 -0.59338176 -0.17829774 3.1764667 1.2782857 0.1767989 0.5602104 1.2251489 -1.43103 -1.1892905 0.602368 1.4767815 -1.6805322 -0.9181293 0.33669043 -0.5653159 0.61828685 1.0670923 2.5019765 0.9203266 0.04249273 -2.3098335 0.23736951 1.220946 1.0357193 -1.6467323 -1.2971795 -0.007119261 0.96944237 -2.9073272 2.5338168 -1.3661535 -0.054952748 0.69350976 2.6308136 0.7060266 -1.7543979 1.1969272 -0.7838933 -0.892818 -1.0226552 -2.1837974 0.25440696 -1.8929826 -2.1105988 2.5828114 -1.1161661 1.4245282 0.59713024 -0.38670856 1.1700164 1.1645759 1.2751517 0.060880028 0.30605608 1.8673904 1.1700048 1.742871 0.6678176 -0.2665071 1.0765473 0.8830257 -0.37811407 1.81327 1.888758 -0.07906053 -0.4825928 2.595842 -0.42478284 0.014355315 -1.5803158 -1.3448651 -0.24983016 -0.88648874 1.2920825 1.2216078 0.10361885 -1.9199265 -0.42864004 -3.1242323 -0.51276845 1.0756805 0.066990264 -0.42188406 -2.042327 0.586744 -1.2998022 1.0494561 0.509258 -1.2705449 -0.49787623 1.4483438 -0.3123112 1.645665 0.13404366 -1.297619 -1.1147932 2.2138653 3.6206431 0.40725246 -0.9200977 -3.5907066 0.73649186 0.18803331 -0.547107 1.8768247 -1.1412183 0.8705923 -0.13798702 -1.2012119 3.711101 0.31469867 -0.9621129 -1.5402615 -1.3675812 0.8830461 0.5262832 -0.31072897 -3.0308201 0.019906512
1038 -2.0508232 -0.76986074 -0.546052 0.25970432 -1.4590588 -0.9791277 -1.1549371 -0.16355759 -1.1807274 0.899578 -0.30433506 1.5655504 1.5724037 -0.59508824 0.79938734 2.0997436 -0.4675792 -0.40015954 1.357629 0.9246755 -1.702115 -1.3179781 0.948994 -1.075187 -0.82669806 2.4023404 1.0352769 0.16433036 -1.3002144 -0.7924995 1.0817533 2.113752 0.30308375 -0.53708863 -2.173573 1.0349681 0.29302484 0.62996346 1.5981047 -1.4366369 -0.40825757 -0.15032908 1.9505997 1.7197338 -1.0225501 0.077953056 -1.469543 -1.9467779 0.4268963 -1.9562659 -1.3201579 0.5852952 -2.5471134 1.9659852 -0.46312186 3.9455342 -0.6446898 0.7489747 1.0661614 0.58495384 0.36321837 -0.2612579 -0.062861286 2.3212612 1.1174433 1.2999454 0.4296304 -0.14471826 0.19624022 -0.2476052 -1.3844823 2.007111 1.5279973 -0.5184418 1.3118942 2.1490538 -3.2467089 1.1874831 -2.2398405 -0.6586035 -0.4194262 -2.0429296 0.4021313 -0.8427498 -1.1216406 -2.4918277 -1.8008324 -2.2228048 0.03008154 -1.3206992 0.13497823 -0.45383716 -0.47683755 1.657724 0.6089798 -0.4779102 -0.90538025 -3.4808865 1.9957871 0.98068815 -1.9303371 0.33054426 1.8300412 -0.46904677 0.24310927 2.5253818 2.737128 -2.1888762 1.894433 -0.64829946 4.4004655 1.208084 0.35475773 0.6760455 -1.6330037 0.7354239 1.2162994 -2.4987078 2.296705 -0.9864967 -2.04565 0.23109971 -1.550851 0.6023185 0.3281647 -0.7399612 -0.27452013 -0.4295135
745 -1.6356311 -1.9576303 2.294534 -1.4643838 -0.102839135 -1.1628741 -2.0286548 0.99245423 1.0581422 -1.7144957 -4.4508977 -1.3895477 1.4475807 0.31253058 -1.2882065 -4.4863424 1.8458533 -0.69135845 -1.3595734 -1.0605673 -2.8660243 0.138966 -3.310244 4.4312553 -2.5353177 2.4831002 3.2892365 3.75198 5.221699 -0.76011515 -1.9454129 -0.10582306 -3.3072503 -0.77579087 -1.2558346 -2.7696223 -1.7269193 1.9675148 -0.16341175 0.17342609 -1.7915475 0.70238566 -3.8152902 0.76909924 0.43026373 2.1627076 -1.2231753 2.5869553 4.399085 1.3572236 0.3002251 2.7142866 1.8270183 -0.35756454 -0.45862257 -2.5542905 4.2600756 -1.1822821 -3.4732726 -1.7370623 2.0299723 0.93977976 1.3523134 0.75643307 2.841923 0.6474944 0.66682774 3.0478945 -4.0749607 -0.7626893 -3.260038 0.68675876 -1.601647 -1.5146248 -0.99780095 3.1501973 0.72110623 7.103266 0.16341615 -0.050477106 2.8648908 1.9680107 1.5239811 4.8449645 0.21028884 -3.231803 -1.2492048 -0.1366309 1.3213224 3.0045905 -2.7049313 1.7759814 3.288428 1.8033229 1.3343725 -0.35993508 0.5241242 -5.204787 0.16040692 0.39888743 -0.8902758 1.2991333 -0.7602936 -2.6215725 -0.7389021 0.59167576 0.049057808 0.06778408 -0.17675184 -1.5269923 1.0493113 -3.0754426 0.8541144 0.130929 -0.7088065 -0.022923218 -1.7916187 2.681104 -0.9096269 2.1122751 0.55596054 -1.8526359 0.7340393 3.9495714 -3.6544712 -2.3383095 -2.8774269 -0.34232664
557 -0.001491633 0.13665842 -0.9087642 1.2186116 -1.0980489 -2.8625371 -0.59912676 -0.62944263 0.7140186 1.150501 -1.6323923 0.42081136 0.6927272 1.2364619 2.2081811 1.2345474 -1.960663 -3.1767418 2.5996315 0.34862852 -1.8862876 -3.2599099 0.51705533 -2.6879978 0.70428234 2.4518554 -0.86577994 -0.79334366 -0.07047546 -1.5433918 1.7806349 0.0867629 1.7894945 2.6470032 0.25093505 0.5458366 0.59455305 -1.1038493 0.9195112 -1.3530065 -2.2742062 1.430854 0.26456606 2.282649 1.9341934 1.153089 -1.1950371 -0.87311673 3.2855942 -0.81764036 -3.1049476 1.6586467 -0.6515694 2.5416512 1.1047783 0.41300574 0.55098635 1.6617318 0.9546014 -0.14434388 0.9304969 -0.27361202 -0.8508016 2.0450778 2.2075593 1.4030426 -1.1263695 -1.8438822 -0.7962988 -1.9517523 -1.2566823 0.97963655 0.97341365 0.26782957 -1.4391804 0.54633737 -2.0347724 1.5267228 -2.6395848 -1.9752581 0.5446217 -2.897295 -0.37379158 1.6355034 0.20199324 -3.7459357 -0.57320184 -3.9650598 1.4906087 -2.274035 -0.58014256 -2.236128 -0.40849125 0.66939145 -0.26147667 -1.3457989 0.5804263 -2.3481908 -0.065345004 -1.1079061 -0.7772438 0.9268577 1.5698723 -0.38410446 0.3516155 1.5366733 2.6982157 -0.77316344 0.69643414 0.46716237 2.0026028 1.9943507 0.29133618 1.091525 0.16319007 -0.80268586 -0.3129606 -1.396582 2.0784245 0.47501242 -0.75216514 -0.26296785 -0.49808842 0.49524513 -0.46431386 -1.5929714 -0.039684508 3.018497
1106 -2.4675245 -1.8216252 -0.78088176 1.1012186 -2.1966665 -0.16659082 -0.47142622 -1.0409123 1.9787301 2.4246414 0.78961647 2.2272253 -0.06830165 -1.5386143 2.68238 1.7064372 0.728467 -1.2691915 -0.5270671 2.8191376 -0.76793617 -1.7553952 1.1478812 -1.883687 1.3824357 1.3314958 1.9256732 0.7034766 -1.1516062 -0.77821654 -2.192537 2.1488647 0.96754086 -0.49643812 -0.29343873 0.34029105 1.0327291 -2.0094662 -1.109755 -2.0634203 -0.9996355 -0.29459402 4.4156084 2.9771187 -0.86036336 1.1719124 -1.3303976 0.8975792 0.48281944 -1.0206993 -0.039206844 0.2703233 -0.9904064 2.5972602 -0.057929564 0.96334004 -1.5862223 2.2251818 2.797416 1.2023125 0.76773125 0.44593862 1.4690124 2.8752818 0.8137444 -0.20133623 0.47449145 1.5511327 0.95068586 0.9144851 2.4539523 -0.014843581 2.540353 1.7888738 -0.28169954 -0.4708812 -0.92498934 3.932496 -0.6275833 -0.96556395 -0.9496767 -2.0549996 0.5430441 -0.61584824 0.44618893 -0.67826104 -0.32607803 -1.864544 2.9654975 1.4461396 0.31755435 0.4459598 -2.5963624 1.2295283 1.3536464 0.5363378 0.14470832 -3.0742483 0.045671504 0.92043686 -0.23618469 -0.82100326 -0.1251292 -0.045017898 -0.16271257 0.9230513 3.180202 -2.086978 -1.1453533 0.036132276 0.731909 0.71487045 -0.78925467 2.383222 -1.928775 0.7980234 -0.20179439 -1.6627035 3.4212332 0.3437073 -0.7604295 0.43044588 -0.23091622 -0.5342952 2.5155935 -0.2733167 -0.5769031 -0.18591142
1275 -3.4177642 -1.2489154 -0.22304238 -2.8750844 1.2917069 -1.8953159 -0.10660638 -1.8661088 0.820396 0.6748743 -0.8493011 2.0887978 0.14845039 -0.7944921 0.38164267 2.6779935 -0.13602656 0.039274786 2.4083755 1.592208 -0.8179981 -1.381572 0.6751804 -0.8468303 1.1834826 2.8556 0.62848514 0.72196347 -2.9243948 0.44040996 0.7962854 2.5244546 3.0363314 -3.0740988 -0.59336543 -0.123730056 -0.004098897 -2.2547677 2.798618 -1.4765855 -0.5352231 -0.13089558 2.4312937 2.2139072 -0.8343845 0.6942698 -1.6285204 -0.7454307 0.6829554 0.59739697 1.0628064 -0.4091876 0.31217396 2.3455315 1.0179651 2.2436028 -0.2586843 0.19924493 0.6904067 2.047688 2.2920861 1.635599 1.5320243 1.9684327 0.6273918 1.7531121 -0.10668893 -1.611635 1.0202385 -0.2713174 0.36371577 1.1959023 -0.92950696 -1.1382616 -0.48899242 0.8480475 -0.7380402 1.6997472 -1.4444422 -1.0540982 -1.2404046 -1.7068598 0.8012146 3.0495772 -0.77248955 -1.245924 -0.005056222 -1.8229032 -0.13402313 -0.25146523 1.0783678 -0.67189366 -1.2817217 1.6406523 0.0011606851 0.58520937 -0.58302504 -2.0473232 -1.2885695 1.5845042 -2.087341 0.11945548 -0.044985186 0.8483894 -1.890954 -0.11543144 2.2478926 0.07216588 -0.6573422 -0.5853792 1.3360498 2.1287723 -0.678045 2.0065753 -0.46670303 -0.7371566 -1.8345119 -2.744917 3.1089652 -0.25663775 -1.8325669 -2.2223687 1.4056213 -1.5053078 0.58415574 -0.32169038 -0.7995558 -0.3060862
408 -2.4815836 -2.1386337 0.867891 0.2123017 0.8510902 -0.9957938 -2.8424335 -2.0326755 0.33938175 -0.12229778 1.4727527 2.0663435 0.4716726 0.03628253 2.5645714 0.22920056 -2.5742693 -3.0142539 1.8369367 1.0067824 0.27864397 -1.7165362 -1.9542941 -1.4383568 0.28318763 0.075119704 2.697306 0.9265844 -1.023007 -1.66803 0.23879734 1.0984708 0.26829785 -1.2482697 -0.3218709 1.5136904 -0.035060864 -1.3806268 1.4318042 -2.461519 0.20874798 -0.06654603 2.0855453 1.1893435 -1.4723862 -0.35014394 -1.5068917 -0.4472496 2.7641754 -0.22340629 -1.9955219 -2.3360858 -1.4982764 2.7073274 0.62460804 2.9005635 0.14000498 0.17853138 3.5876157 0.5575001 0.02381597 0.37873042 1.9049953 0.021963127 2.533771 3.1143599 0.61279154 -2.2309382 -0.46991807 2.0581622 1.2492608 1.7282658 0.026880551 -0.39107463 1.0320625 1.2600125 -0.70054495 2.008695 -2.0203996 -1.3593061 -1.2957231 -0.82724977 -0.1884523 1.3604983 -1.5696063 -1.3195752 -0.48807624 -0.96119004 0.50689507 -1.1227278 -0.7327974 1.5406094 -1.217671 1.071068 -1.3906852 1.1374366 -0.10300971 -1.5684779 1.9849226 -0.12857644 -1.7109869 -0.41851094 2.3121846 0.08132837 -0.11361676 -1.2964668 0.963036 -1.0220473 1.3639158 0.22954088 2.6778162 2.9302619 -0.0917051 1.69483 0.53170884 -0.956449 -1.5675142 -0.9594376 1.8529259 -1.2522931 -0.65103567 -1.6818982 -0.36398938 0.34723896 1.8021903 -0.6392305 -2.3884692 -1.0850677
44 -3.1474824 -1.8975853 -1.2406856 -1.9136289 -0.21128039 0.35740894 -0.7920063 -1.4587041 1.5839964 1.5950439 -0.38509822 1.6197199 -0.62718844 0.7689835 0.17986444 1.8784746 -0.5433494 -0.0040027807 -0.31771535 0.5868411 0.3213627 -2.6482127 0.852831 -1.82142 0.9028572 1.749672 2.5302627 1.8954246 -0.8943651 -0.87416077 1.034697 0.8654442 1.5349244 -1.73567 -0.6388688 2.4424288 0.58828413 -0.99766755 1.2320019 -0.58295375 0.05250936 -1.3148744 1.9286511 1.7531095 -0.020150648 -1.0251503 -2.2918854 -0.08938899 -1.2294726 -1.5191791 -0.53312594 0.30817953 -1.150828 2.4160218 -0.5289485 2.3636475 1.055335 0.32637677 1.4249941 1.4112784 1.4121028 0.034740902 1.0545226 3.4941232 1.5959612 2.6680665 -0.063820854 -2.4882705 0.639876 0.8723126 -0.44366214 1.3874589 -0.18481511 0.94575787 1.8147652 1.2215185 -1.1040995 1.5813754 -2.9721687 -0.71438104 0.44164634 -0.834692 1.4207206 -0.19921318 1.5908718 -0.40147668 -1.0402406 -1.6255288 0.40249237 0.8822809 -0.27766663 -0.9521032 -2.7879307 1.468807 0.15956335 0.29683107 0.19409998 -1.9777565 0.3091323 0.32318348 -0.9591547 -0.12725574 -1.4684268 -0.85807437 -1.0734972 1.925126 1.3910902 0.78073895 1.3232687 0.46464145 2.3032885 2.1545022 1.4382547 1.2358782 -0.9829824 0.6072825 -0.74380577 -2.178003 2.952268 -1.7388248 -0.09144593 -0.69740695 -1.8552017 -0.81261003 1.6826549 -1.3255447 -1.8404927 0.5406157
647 -3.4007006 0.8867336 -0.56106836 -0.40249595 -0.731247 -3.723704 -1.1757383 -0.8435654 -0.40431136 -1.8033772 -2.1069474 1.0764831 0.5344683 -0.12323195 1.3646426 1.0722197 0.10869298 -1.0733564 -1.8899585 1.7561847 -0.69277793 -1.5668375 -0.4670798 -0.3771641 -0.6544559 0.003846136 1.5174243 -0.76873845 3.5866745 1.050444 0.40507686 -2.3833754 1.2251185 -3.519333 2.4232173 -0.40927234 1.1335801 -1.1281908 -0.7119678 0.39528188 -1.3284671 -1.1871198 -2.0212922 0.83483624 -1.0395662 1.5551684 -2.2334418 -0.552888 0.86533576 -2.5045118 -2.085516 1.2212802 -0.4192977 3.7931142 -1.75567 3.790585 0.96506065 0.61275756 2.3635094 -0.44516334 1.4136673 2.2921598 0.9788649 1.9629166 1.7231841 -0.46861053 1.2570802 -2.8266447 0.7675534 1.3171405 -2.8357344 2.19825 -0.9605917 0.5635358 1.4763612 1.1435983 -4.942697 2.8738143 -3.4357398 -1.4622854 1.7250078 0.06507515 1.9889927 2.696822 1.0146439 -2.0455427 -1.9154199 -1.4852775 0.8796767 1.5653937 0.68380713 0.84692097 -1.0886368 4.919155 3.0827634 -1.026959 -1.3879348 -2.294341 2.3112564 0.10848432 -0.4532473 0.38411975 0.5739006 -0.4919762 -1.7179207 4.08044 -0.6598018 1.8304813 -1.0390024 0.91032994 0.1920638 4.031653 -0.21559215 1.7245115 -0.44606695 -0.33886874 -1.9513259 1.1271071 -0.7004763 -1.5201855 -0.2817693 2.2900913 -0.3499265 2.0335348 -0.7838839 -1.7214576 -2.833652 1.3161124
1118 -1.6097785 -0.31194568 -0.7634679 -0.054448523 -0.88603455 1.5038958 0.77134746 -0.48702714 2.2511768 0.5772669 -0.50025135 3.4208293 -0.09752589 1.8354241 1.1334955 1.1962397 -1.0593365 -0.5462808 0.056975808 1.0482666 -0.8543634 -2.4352179 -0.6336973 -0.23098722 -0.6304511 0.6531905 1.7723644 1.8148206 -0.67327183 -1.4255499 0.9117503 1.6153977 0.9560358 -2.1625838 -1.0008847 -0.7127713 0.64753896 -1.7329137 3.099261 1.6240454 0.60555446 -0.027350632 2.975877 0.5901176 -0.36959726 -0.45409378 -0.69513226 -2.2579226 -0.6398409 -1.5630102 -0.2951067 -0.48659465 -0.87297577 1.6767577 -0.16772729 0.83306825 -0.45048547 1.4032868 1.5138656 0.7354188 1.6983443 -0.43586612 2.2453895 0.729619 2.9642422 2.470825 1.1379045 -1.2800558 1.2280364 0.5590642 0.3305483 0.78749406 1.6512572 -0.77371716 -0.10671042 2.0275311 -1.948895 1.9753793 -2.21621 -1.3768913 -0.62310404 -0.94401175 -0.13317844 0.05341484 0.13911168 -0.8030208 -1.1888932 -2.938228 -0.21781436 -0.59817225 0.17675112 -0.9130484 -3.5323803 1.5345731 0.13680148 1.889426 -0.4037746 -2.210456 -0.043378636 0.82254094 -0.5160664 -1.0276953 -0.49988928 0.017191775 -0.6191393 2.9182918 2.6157644 -0.27156618 -0.38177857 -0.99078476 3.2858343 1.8573906 0.019177763 3.2083075 -0.49293655 0.9528394 -0.9745474 -0.9295064 3.3058186 1.2197013 -1.7609242 -1.3216329 -0.5220985 1.7269155 0.7827094 0.8012277 -2.0468276 1.9346268
1105 -2.8665707 -1.3609185 1.4717839 1.2405254 -1.2429756 -1.5229669 0.4676354 -2.2894452 1.1935178 -2.3292553 -0.88695204 2.5049744 0.28690788 -0.20388496 0.8941767 -0.22088003 -1.3527461 -2.0830073 1.7331287 1.6118195 -0.560249 -3.2411838 1.2852238 -1.0643414 0.5006713 1.7436739 1.0864593 0.12282335 -2.7311773 -0.55464303 -1.1203424 0.70015484 1.5603422 -0.078000605 -1.4710767 1.5361212 -0.07738177 -0.2704227 1.3095591 -1.1743245 -0.8126556 0.6526203 1.6276249 3.3817036 0.10886953 0.941491 -0.48312736 0.66354024 -1.3082556 -2.9526563 -1.0238171 -0.013562506 -1.2691473 3.8820374 0.56209797 1.5337567 -1.0336285 1.014756 0.3789329 0.13269417 -0.3524151 0.6348494 -0.9684476 0.88632715 0.83076245 2.234318 -0.7541334 -1.3787202 1.4385432 2.478583 0.9028881 -1.6074501 0.5630423 -0.2894293 1.1716241 -0.14678273 -0.39940903 1.2583675 -2.402794 -0.5750237 -0.67735946 -2.928153 0.64763355 1.7972878 -0.051008217 -1.6378433 -1.0736415 -1.7544069 1.4762293 -0.8576978 1.082297 -0.78376925 -2.332475 3.7653098 0.49393958 -0.65627474 -0.8920675 -1.201783 1.1860214 -0.87040794 -1.0070313 -1.9919937 1.1123949 0.1726268 -1.3710288 2.247772 2.1642895 -1.6246226 -1.5731735 1.0451443 2.1854334 1.1526085 -1.749262 1.984966 -1.8383304 1.6204021 0.1215566 -0.6305439 4.0748234 0.16733119 0.6201386 0.8246456 -0.3354182 -0.32619143 0.11643637 -1.5317754 -0.07186415 0.024991015
1094 -2.165509 -0.10246696 0.8020099 -0.30250102 0.06204222 0.049037468 -1.6359817 -2.3295634 0.39632198 -0.40723887 -1.2412466 1.2093296 1.3854902 -0.4106158 1.7466195 2.8718593 -0.9522719 -0.6949548 0.009331428 2.0433931 -1.2223562 0.21427439 0.7907096 -2.5208676 0.7955685 1.9851679 2.6922472 1.4490644 -0.21466416 -2.7736037 -0.25734633 1.4791275 -0.051134165 -1.4132141 -2.1258335 0.34842113 0.8742462 -1.4942776 1.4631827 0.36330017 0.31706288 0.37355256 3.4452555 -0.058895893 -0.024026928 1.5248519 -1.7125782 -1.898783 0.77639097 -1.9614005 -0.90055573 -1.6485567 -1.7409816 1.4978062 -0.85080063 1.691737 0.29013795 1.2159047 2.308468 2.7609446 1.4333086 0.2679936 -1.2873873 2.1542466 1.5402014 1.5226498 -0.082289666 -1.2392473 0.4429145 0.602794 0.40635988 -1.250847 -0.13658334 -0.5150546 0.6204444 0.61046743 1.3472376 1.3250804 -1.8442136 -1.4448858 0.6883387 -1.2132752 0.6812151 1.3150499 0.51331687 -1.2373769 -3.1168754 -2.2018597 0.6197261 -0.24445306 0.13706636 -1.9962348 -2.4166765 2.3295844 2.337496 2.4086888 -1.6580299 -1.0117809 -0.17211813 -0.18604268 -0.72338 0.97278136 -0.35140646 0.087177604 -0.97957253 1.4100795 2.0234613 0.4015567 -0.39543957 -1.9768959 2.5519767 2.1552231 -0.23289157 1.2314118 -1.1476402 1.6554282 -0.7579577 -2.881583 1.4406179 -0.106034026 -1.4315885 -0.30148083 -1.0880922 0.30134022 1.1645198 0.043288562 -1.6183287 -0.91593355
54 -0.12492095 -0.9045846 1.5695983 -0.43062982 0.0031200189 -0.16498233 -0.9480312 -1.4134831 1.6392462 -1.746199 0.255084 0.87482095 1.5705596 -0.6113797 0.4842884 2.378651 -0.8208863 -1.1319221 1.3929448 2.7094853 -1.882293 -2.7635705 -0.38294724 -1.6354795 -0.13709547 2.202128 1.4826912 -2.3202047 -0.1295747 -1.6378267 2.3338516 0.20846833 1.0183531 0.2817776 -0.98665404 -0.4824245 1.3055496 -0.87511045 1.3176742 0.43297592 1.2855228 -0.780959 2.7260778 0.8150264 -2.3314853 0.35880986 -2.2939863 -0.19758944 0.43688855 -0.2837628 -0.77621096 0.18789133 -0.106718384 3.5936036 -0.7882679 2.1489756 0.7164203 1.8754185 3.4398592 0.99110574 -0.07662186 2.3612974 -0.12012033 2.3801515 1.3765166 1.906742 0.6134286 -0.3879952 -0.6014413 1.4251683 -1.0367512 -0.2172423 -0.26184502 1.4216049 -0.37674078 2.8165004 -1.755404 2.058602 -3.0264354 -2.5669658 -2.5650506 -1.1700696 0.30539927 -0.5350648 -2.6239228 -0.37336627 -0.8754984 -1.3558054 1.5964133 -1.0632211 0.53410375 1.4531476 -1.0513365 0.71471643 -0.9778932 -0.1261141 -0.74644005 -2.2431543 2.028501 0.79812634 0.6192898 0.4756723 1.044149 0.7116411 -0.28121126 2.8943717 2.7354348 -1.4764096 1.2947851 -1.4718132 2.0650578 0.74224395 -1.1123736 2.6047733 -2.2635 2.06612 1.2376109 -3.499346 1.8071963 -0.8793889 -1.1226848 -2.7434583 0.3996591 -0.11662538 -1.788771 -1.0011667 0.4882754 -0.7253655
937 -1.7753962 -2.1667452 -1.8922902 0.6667624 -1.0662584 0.036653467 -0.20856985 -2.7495728 1.5615351 -0.49829412 0.014705701 2.3267822 -0.47051865 1.3873802 -0.045471746 1.9053053 0.36518127 -1.423445 -0.30551282 0.63781714 -1.511247 -2.324824 1.7264669 -0.0312922 0.15455148 2.7210908 2.1738262 -0.40900692 -0.96666396 -0.20785697 0.90664834 3.2069626 2.6325727 0.51411104 1.8610805 -0.2395683 0.68086696 -1.5694408 2.2065084 -1.0932071 -0.3413451 0.5668986 1.5309709 1.4595968 0.32620475 1.0541661 -3.4422207 -0.3276325 -0.70756936 -0.9226639 -1.3574284 -1.0494627 -1.3735585 2.9647236 -1.895166 3.356921 0.30112183 0.49517423 1.5746416 2.0892649 -0.5103874 1.556747 2.165679 0.733997 0.36331567 0.50861686 0.044873375 -2.0971427 -0.49855986 2.3976343 -1.4518973 0.51575273 -1.0047649 0.10013712 1.3463981 1.2838935 -2.6044555 1.4422953 -1.4296938 -0.85801154 0.6938597 -0.6569432 0.49664244 1.9478956 -0.28396833 -1.7736955 0.19561581 -0.36812216 -0.31988382 -0.7979221 0.28492433 -0.043090828 -1.5702965 1.2786834 0.25449517 0.46806225 -1.3852478 -1.0081751 -0.6284807 0.046715047 -1.0931929 -0.22554456 -0.2686942 -0.70755726 -0.40637428 1.1381582 3.5383408 -0.45070043 1.1825542 1.3404338 2.2136202 2.5132108 -1.2878044 2.4339566 -1.0619402 -0.42065004 -0.9189612 0.046686556 1.740573 -0.336436 -1.0037403 -0.07397592 -1.1890972 -1.0900617 -0.3362435 -0.70997036 -0.5230093 1.0007039
1097 -2.5917094 -1.296619 -0.74736583 0.43137547 0.5283544 0.71762645 0.50725037 -1.8803955 0.73507804 -2.1774375 2.314336 0.9575717 0.67724365 -0.12996319 0.098328955 1.6297204 -0.9546376 -0.39354387 -0.32458863 2.3552532 -2.2492692 -0.68489915 -1.7102358 -3.1975935 -0.43471137 1.2649825 2.457548 -1.1683128 -1.2909461 -1.0583191 1.7597842 0.5999256 1.3487601 -0.9589363 -1.9990406 -0.0659799 1.4816884 -2.319179 1.5431316 -0.33438724 0.075947374 -0.27946246 2.5086906 2.9504385 -1.2792431 0.013894559 -1.3252063 -2.4401922 0.5334879 -1.3510882 0.5277128 -0.033495195 0.26178017 1.9130511 -2.125049 1.8160506 -1.7665355 0.81069803 1.7061803 -0.18949847 0.1652175 -2.1076589 -0.012912522 4.3012595 3.368869 2.2694402 0.8176512 0.36907038 0.13944581 1.8947431 -1.3128798 -0.6650382 0.6853563 -0.36678493 0.8531748 1.6230633 -0.23980688 3.2642288 -0.58012366 -0.3782781 -0.8300947 1.0347483 2.3351839 0.44245708 -0.23081818 -1.8244101 -0.43200433 -1.6936065 2.067413 1.5479926 0.9362275 -1.624679 -2.4810226 0.93460435 1.8317817 -0.5334482 0.2539167 -3.0023215 1.731491 0.25358793 1.0404634 1.7336388 1.9528037 -1.1926764 1.3127536 1.1482165 2.0227058 0.65643173 0.9983872 0.22383714 1.9196147 0.40909022 -1.6901587 2.4226453 -0.5539652 -1.0140703 -0.7990151 -2.7208648 3.7111163 -1.2569301 -0.891799 -2.356308 -0.41543669 -0.5250429 1.1153227 0.09009035 -0.3375126 0.77730674
71 -2.2302792 -1.0245415 1.1149756 0.37121764 -1.216033 0.11609293 -1.2816985 -0.4795607 0.6226981 -0.18340713 -0.013942575 0.70358133 -0.891412 2.1094506 1.6134063 1.8681016 -1.4411815 -0.09618177 2.3252685 3.0539587 0.69621223 -2.4803188 0.6498937 -0.10616096 -0.28089872 1.4719923 4.1312447 -0.75690526 -0.55155545 -1.4024097 3.0712714 2.180644 -0.51122296 -0.22082962 -2.5262265 1.2885829 0.8077177 0.90594643 1.2212415 -1.168951 -1.4296169 1.4421313 0.9358248 -0.1235844 0.42521966 -0.5067513 -0.42405444 -0.5488337 2.3973508 -1.7380923 -0.8282675 -0.19635607 -0.57409537 3.3550572 -1.4672692 -0.876486 -1.3262129 1.4027203 2.0435796 -0.8937262 2.339374 0.16325873 -1.7867508 1.8140117 -0.44291458 1.3949009 0.32901385 -2.2509634 -2.0861287 -0.13313732 0.8082276 1.1252408 1.6942872 0.014042567 -1.533539 3.879646 -2.086778 0.36978438 -2.0747457 -2.2547784 0.08280444 -2.6632981 -0.3479773 0.25373852 -0.30075806 -1.6148599 -1.9934696 -2.614726 1.6796545 -1.1654294 0.7172477 0.55156577 -1.0159193 1.5099528 1.4489977 0.3749205 -1.0575956 -2.1383576 1.162294 -0.2418953 -0.377512 -0.63392735 0.836835 -0.32357475 0.49641716 -0.41861972 2.644123 0.10787865 1.6334846 -1.3677047 -1.3354237 0.62979954 -0.19850296 1.9293118 0.75194615 1.3826091 -0.63779074 -2.0472271 3.7572598 -0.62271273 -1.456562 -0.6750513 -0.46456006 -1.2506927 1.5130384 -0.08524109 -1.2795593 1.0520529
1110 -2.5268967 -0.22342266 -0.53306156 -1.9860991 0.87612635 -1.0874199 1.8748077 -1.8549283 2.7693005 0.16681305 -1.1156627 3.8934817 1.3310344 2.1120057 0.2042979 -0.5190274 -0.012904602 -0.21341491 0.12230465 0.227106 -2.2954168 -3.3707116 -0.46973816 3.6056602 -2.0789611 2.0866678 -1.266136 0.4959087 0.3352006 1.0200727 0.631055 1.3407385 -0.4890861 -2.590469 -0.8921568 -0.32736456 -0.37567163 -1.8330042 -0.4994039 -0.15936327 -1.1990951 -1.1553748 -0.34396532 -2.1443026 0.37023038 1.97672 -3.7391083 1.1004163 2.889638 1.0838542 -1.5436354 2.8267019 -0.15088177 1.636333 -1.1242988 0.33622035 3.2892978 0.2355389 -0.68282145 -1.6849078 1.5692788 1.6587725 1.9984751 1.2709749 2.1697636 2.0863016 2.2501574 3.3754056 -1.2899666 1.6368719 -3.1741521 1.4855886 -0.8800052 -0.9186527 1.6072928 0.28695753 -1.4027249 4.304745 -0.03351752 0.32460195 -2.1656973 -0.57740796 2.6502225 2.1726918 -1.4963915 -3.8435 -1.6295539 0.88169944 1.8706473 -0.6774376 -0.86776245 1.7931875 -2.967367 2.9896262 2.177635 0.25965902 -0.43730944 -5.389072 0.15906903 2.441493 -1.4871509 -0.025234405 -1.1341295 -5.0772734 -0.75374377 0.4367365 0.12993535 0.54574656 -1.2597075 1.2599472 1.5526407 1.8065083 0.7199487 1.4051352 -1.0701594 -0.39449102 -3.520867 -1.1849065 3.1403563 2.6467729 -3.615485 1.6211797 0.6210324 2.5687912 2.4725647 1.3864192 0.21383458 -1.1115401
1270 -2.2308273 -0.017368346 -0.71482337 1.0138161 -1.5329884 -0.7767331 -0.3628006 -1.6245292 3.8463616 0.6209054 -1.2479012 2.4528358 -0.3867893 -0.56886137 2.4515421 2.1572902 -0.5664087 -1.0875223 0.17660245 1.0472043 0.0039647017 -1.3517246 -0.5733084 -0.8409051 -0.36708137 1.1775398 -0.009909506 2.7879653 -2.089452 -2.0643237 -0.1776038 1.0991207 -0.06459211 -0.47344926 1.1596558 0.41920853 1.2978116 -1.4367899 2.3951957 -0.7060327 -0.46519306 1.0257251 2.7859244 0.27589872 0.5570261 3.9783509 0.24124894 0.32097587 0.652016 -1.7141458 -0.28152937 -0.7912796 -0.48807272 1.8847222 -0.5544371 0.89733124 0.7918805 1.0006585 0.47816953 1.1712406 1.712405 2.1423733 1.8827689 2.01049 0.98323 1.6700672 0.23514083 0.11296937 0.45874816 0.8987323 0.35249886 0.41301945 -0.52283305 -1.853266 0.25763348 1.7672518 -1.9864265 1.8267789 -2.2752073 -0.00058023835 -1.7423196 -1.9864622 0.015033787 -0.03576102 -0.8887551 -1.1285771 -1.0292007 -1.1923523 1.390814 0.2719367 -0.61723465 -1.5560708 -2.9948115 1.5409845 0.6691029 -0.34367445 -3.0797122 -3.0923338 0.9622736 2.19114 -1.512129 -0.43627313 -1.2170117 -1.0415113 -0.60925025 3.1681972 4.1059937 -0.33408076 -1.7309204 -0.4920915 1.2355417 1.3867644 -0.24073912 2.2089648 1.1617162 -1.3372849 -0.75570506 -0.7327626 0.57425207 -0.38570523 0.55950797 -0.32971224 -0.57700264 0.9424203 0.48436543 -0.32430294 0.0040081386 -1.9610815
730 -3.2865517 -2.570835 1.0656515 -0.90085244 0.8287441 -0.81947815 -0.9205334 -2.3377557 0.8289226 0.23028153 -0.26589453 2.2426784 1.2409304 1.0850575 0.30092454 2.9291618 -0.48027545 1.5769162 0.15291576 0.76870584 -2.221843 -1.5304488 -1.5660251 -2.7122395 0.6191318 1.0023006 3.4740784 0.030844234 -1.2209612 -0.51865685 0.76060057 1.1136628 1.4295515 -1.8522024 0.95177877 -0.09258383 0.8233439 -3.4910514 -0.37638125 -1.679855 -0.47542638 0.22426963 3.0970252 1.676006 -0.104466625 -0.3825537 -1.7800912 -2.0268466 0.18232489 -1.080127 -0.47237465 -1.1277399 -2.658545 2.9841886 -1.7034193 1.8972257 -1.3957559 0.88975656 2.539592 1.6927998 1.2682639 -0.160842 0.8563169 1.5535599 -0.7517546 2.8029213 -0.28778565 -1.652078 -0.7391729 0.40127197 -1.6264879 -0.8812329 0.22276323 -0.0777706 1.5203298 2.355527 -0.120508045 1.7055888 -2.120448 -1.9629986 -1.4691255 -1.039635 0.35226437 0.30111778 -0.96702766 -2.2106786 0.8198031 -0.8107676 0.38250297 -0.3651616 -0.7623488 1.021066 0.98475313 2.4046376 0.5357815 0.22859202 -1.6420766 -0.9633076 1.5904188 0.8561105 0.6307239 1.2422671 -0.8606569 0.5990371 1.5374609 0.7149336 2.7338064 -2.983782 1.0728886 -0.48977393 3.3425941 1.0512143 0.9323796 1.3071474 -0.10963743 0.6610285 -0.44861796 -1.4108237 2.7146745 -1.9734203 -3.2626052 -0.21881454 2.071037 -0.089039765 0.76162183 -0.14473224 -1.2084426 -0.42134598
1293 -2.4743836 -2.1683612 -1.3692341 -0.3055515 -0.023741066 -2.5045903 -1.1480694 -1.5146614 0.23741663 -0.7306178 -0.04453285 0.51582587 -0.66920155 0.96926516 -0.22076455 0.33904722 -0.05351236 -1.7268333 1.3803344 1.7343453 -0.076017715 -1.8787647 0.62932956 0.38266885 0.43918645 2.2048662 1.792896 0.48417804 -2.1641269 -1.8393598 0.35686806 1.4197289 2.294032 0.44415632 -1.0204312 -0.17587814 -0.06664274 -1.8550457 -0.96087164 -0.6413909 -1.5194615 0.8863699 0.10926256 1.2432773 0.60161465 2.5069728 -0.21624361 -1.0774448 -1.2590933 -1.2130942 -1.0220172 -0.15306026 -0.44485882 2.2665675 -1.4229996 1.4588693 1.5540093 0.49453533 1.0316732 1.0078827 2.4100986 2.739196 0.31846592 2.515341 0.5260808 1.9485774 -0.93516684 1.2366248 -0.9206152 1.604109 -1.0238258 -0.9263425 0.9431746 -0.15311946 1.5675889 1.3622006 -0.09022404 0.92263985 -2.9228868 -2.203778 -0.18239072 -1.8126644 -0.45765585 1.4230818 0.055834312 -2.1398783 -1.3711324 -2.4041712 0.59982425 -1.4708104 -1.4798243 -1.8762238 -2.0784316 1.91136 1.6163343 -0.15007296 -0.44336888 -2.7637146 1.5150938 0.16606982 -1.8703727 -2.5353763 1.2659094 1.5753202 -0.6199417 1.1024808 1.3601347 -1.4476382 -0.2994715 0.49428433 0.5087715 0.6384363 -1.4152752 1.4244905 -1.4736636 0.9616815 -1.1031951 -1.0140911 3.7184665 0.055530082 -0.26386932 -0.043800425 -0.89279175 -0.7718306 -0.0936004 0.10685282 -1.6081203 -0.44875017
550 -2.197394 -0.6565962 -0.5232471 0.6739866 -1.8663898 0.7868324 -0.027920153 0.30893022 1.9116639 -2.3889422 -1.3348277 2.332098 0.8038583 0.51187146 0.8396961 -0.27944487 0.0008134874 -1.6133175 1.7216325 2.1769261 0.4957487 -0.43037492 -0.9445328 0.4019512 0.5368338 4.341822 2.212034 1.2109582 0.095395684 -4.876968 0.8081801 0.011484048 1.0562984 0.20450713 1.032483 0.9161958 -0.8486119 -1.7753853 2.7644858 -3.012793 1.5826852 1.7638798 1.0612396 1.93952 2.4534597 0.43058708 0.8387049 -1.0704048 0.7882226 -3.6340806 0.7280718 -0.04794456 0.5980592 1.8971262 -1.9374213 1.3100986 0.34408307 1.1388361 -1.3729208 -0.724265 2.1813693 0.12348986 1.106485 0.85324496 -0.6798821 0.986165 -1.892033 -3.0721989 -1.3117206 -0.04792427 -0.4948286 0.21910785 0.6535367 0.6201219 -1.809265 2.5104754 0.7194782 -1.1793256 -3.357821 0.7231142 0.026615523 -0.81429213 0.65522474 4.535979 -0.3707786 -1.6551319 -0.10223878 -0.5422632 3.8403192 1.0101192 2.013418 1.2337415 -1.363326 -1.1661086 1.2039956 -1.6382385 1.1183852 -4.3599863 1.5991894 -0.2075338 0.7860116 0.3747167 0.6086746 0.04908317 -0.46850604 0.7042181 3.9186897 1.802347 -0.48010576 -0.88184786 -0.23542632 5.0219636 0.23687439 -0.93433464 -2.5192099 -2.6372275 0.8531568 0.97219265 3.8157551 0.24892767 -0.83953667 1.783333 -2.0801396 -3.1352139 0.27703932 0.20537496 0.81757385 1.3827875
653 -1.9405634 -0.8712155 0.26541564 0.16243765 -2.273056 -1.87621 -0.26605922 -2.8297226 0.5771851 -0.606713 -0.6140124 1.4906673 0.668983 2.1605036 0.97278243 1.2648354 1.7159055 -0.949082 0.06835774 2.4622505 -2.4430652 -1.3334874 0.4134778 -2.673115 -1.2492776 1.1157457 0.4557342 1.550217 -2.0419188 0.15518835 1.1574281 1.1630104 3.2861106 -0.9768768 -0.040523555 -0.4488396 -1.0919958 -3.427818 3.499537 0.9471234 -0.93098676 1.3667089 0.38942996 1.2950677 1.3728213 1.662301 -1.5269097 1.3797364 1.2425722 -1.7674798 -1.8590397 -0.3303828 -1.2139463 4.129613 -2.1331286 1.4189602 1.3906026 1.188414 1.7226624 1.264252 1.3934965 1.0035422 0.87261117 0.18097709 -0.1504209 1.3259526 -0.52542394 -1.6658261 1.1078678 -0.57823014 3.0376575 -0.14140889 0.15046708 -3.0341578 0.26489568 -0.06935612 0.024738926 -0.076224715 -2.5916295 -0.24270517 -0.2676788 -2.4092562 1.3192039 1.8810331 0.9059274 -2.0354548 -0.45945796 -0.97709805 1.4597176 0.61476827 -0.37253302 0.731184 -2.2901587 0.3070577 1.4379656 -0.8678741 0.111822546 -1.9094207 -0.09288066 1.1596881 -0.05897692 0.19902894 1.9004481 -1.4516134 1.0816116 0.84380066 1.5437917 -1.2046765 -1.7532432 -0.3609668 1.7930785 1.0386147 -2.2576551 0.46103027 -1.8399925 -0.019622242 -0.60681474 -1.1051447 4.5478187 0.11016479 -2.5839975 1.0748549 -0.4924683 -1.5627449 0.046620242 -2.5763323 0.2747178 1.149482
64 -2.072274 0.24490927 -0.9587534 -0.48641807 0.29630223 0.38885304 -0.33089516 -1.5760076 3.5390773 2.0895016 0.1805126 0.1184263 -1.3247745 -1.445072 3.318635 -0.038209982 -1.0466892 -1.6854995 0.4979464 2.559637 0.6103548 -2.849611 0.56868905 2.575186 -0.42468727 0.5853524 4.155144 -1.4233539 -1.6980393 1.7565418 1.0857297 0.3563041 0.559626 -2.7130446 -1.471898 3.620643 1.4277724 -1.2626594 1.3012245 1.0616918 -2.438672 -0.10897221 3.3777733 0.40228906 -0.0642803 0.13468313 -0.26694387 -0.18104203 1.7490324 -2.58639 -1.6787289 -0.15947612 -1.8349212 2.363269 -3.8806927 0.8460619 -0.64486104 1.0500541 2.0055811 0.8248382 1.7607292 -0.57864666 -1.7980939 0.34565508 1.456631 0.1224817 -0.8971541 -0.6419133 -0.37987995 -0.9887188 -0.8485861 1.1148646 0.957887 1.163134 2.0131807 2.5409288 0.28193688 -0.9705627 -3.1523044 -1.1536006 -1.3464266 -1.8125094 -0.6935733 0.8537943 0.0142630655 -1.7757862 -1.1163435 -0.90066767 1.7753873 -1.0558679 -1.038341 1.6316179 0.50932467 2.576967 -1.3796066 1.7379556 0.34572852 -1.8057203 2.7424245 1.2532504 -0.45808727 0.09752703 1.5866146 0.8762083 -1.2981124 -1.6375664 2.7153528 -0.37799698 -0.37457332 0.42098352 0.58342934 2.4526083 1.1731452 -1.9973929 1.6699688 -0.3154809 1.7899727 -1.4957641 3.2983184 -0.18823613 -0.3457318 1.2950473 -1.2038568 -0.19821674 1.8654529 -0.6950243 0.2573122 1.0571055
1298 -1.9945533 -0.43026605 -0.22372413 -0.947253 -1.5714935 0.29345104 -1.1072202 -2.2066555 -0.27172163 0.0964355 -0.37338477 1.9334733 1.8914449 0.1812762 1.477864 -0.02079882 -0.88552856 -2.760581 0.69129044 1.1206493 -0.4695248 -1.5586679 2.3526187 -1.2080698 0.8756293 -0.9265525 -0.3165834 2.6604755 -1.3595644 -1.5463412 0.48336363 1.6441977 2.4142509 -1.0559402 0.13081191 -1.4195907 0.30008262 -1.3659456 2.7963705 -1.2073636 -0.4465826 1.0643529 3.1880784 1.9961374 -0.24415885 1.0506984 -2.735339 1.4037563 2.4740248 -1.3420951 -1.0222 -0.3859321 -2.2955236 3.3807392 -0.16261083 2.8138838 -0.8920177 -0.98552155 2.422153 0.5909813 -0.4963883 1.8788884 1.8098013 1.77452 -2.0514002 3.2400215 -2.1696017 -0.08560098 0.41921955 0.74705935 -0.6960378 -0.5864276 -1.1373764 -1.009274 0.83401525 1.6014225 -1.901556 -0.6103801 -2.4977694 -0.2624017 1.5741503 -2.5516584 0.47934803 -0.0006459891 -0.88333094 -1.6201861 -1.4093264 -3.4584527 1.0912592 0.060887784 1.5901804 0.9254557 -0.8838029 1.5103453 0.17287046 -0.14154646 -2.2319093 -1.8112401 1.043757 0.33495244 -0.4369158 -0.1525936 0.764787 -1.0457119 -0.38306615 0.5414883 3.066459 -1.6747195 -1.1858441 -0.2093366 0.858663 0.22255781 -0.24334192 0.28465402 -0.81768256 -0.4810623 -1.7759707 -0.97420865 2.6385 -0.75419086 0.7903138 0.44296837 -1.0566385 -0.55343217 0.31616545 -0.9597282 0.7336804 -0.57071817
1195 -1.346036 0.37725043 -0.13385534 -1.5657264 -0.57756245 -2.2090666 -1.3737404 -2.570748 1.7568212 0.8881125 -1.8383301 -0.20981811 -0.39397648 -0.17446621 1.365774 2.6654751 -1.4755069 -1.8325087 0.76457137 1.1486474 0.6712039 -2.3482559 2.3812954 -0.727823 0.7197331 2.2316735 -0.626798 -0.44709396 -0.30771768 0.09260115 -0.35752878 1.5367916 3.3108313 -1.9067811 -0.61711484 -2.0212145 0.82831955 -0.6445218 2.267543 -0.4302343 -3.1748433 1.0590442 2.37682 1.544066 -0.49650687 2.3734949 -1.8853561 -1.010489 0.22500543 0.2984759 -0.68213373 0.101717606 -0.45020512 1.3838519 -2.0402932 2.522538 -1.9293989 -1.1125472 0.8330075 -1.4511142 1.7122993 2.327398 1.595547 2.3710105 0.53972214 0.9443535 0.34360892 2.4158778 -0.43620318 2.3325195 0.9411383 -0.085804164 -0.30883348 -0.4653481 -0.19573049 1.6321744 -1.1439747 2.7025404 -2.8586056 -0.261768 0.9569535 -0.87189245 0.438468 -0.5345571 1.6915019 -1.0741373 -0.24902152 -1.1719526 1.5292448 -0.06426779 -0.79961276 0.07446393 -2.1126025 2.4886606 0.16159862 -0.6002786 0.19822428 -0.6763539 -1.5179104 1.4454572 -2.9672558 -0.21137513 0.27515477 0.2903271 -1.4138056 1.1455194 1.9647316 0.9407124 -2.0059216 -0.1959202 0.6570702 1.4511522 0.8381321 2.6431708 -0.8508743 -1.8419319 -1.5839145 -1.5453066 2.2182267 0.8589082 -1.626518 -1.20611 -1.328735 -0.25612897 0.7270492 2.5159523 -2.9655857 -0.8949675
758 -2.510829 -0.92500365 0.47201505 -3.529949 0.89651215 -1.0209299 0.03721366 -1.2065235 -1.9597014 0.54901105 0.8789326 0.54264367 1.4346803 0.73726594 0.66474384 -0.947416 0.25508153 -3.2448573 3.113678 0.96926713 0.76126355 -1.5823332 -1.1672747 -0.25133285 0.017872343 2.9495118 1.1807629 -0.28144607 -2.2185466 -1.9290214 1.1356826 0.051844835 0.58260465 -3.1350224 -3.6241434 2.0831757 0.84735674 -2.1972532 -1.3383574 0.32727337 -0.49194127 0.1747651 0.328613 1.0326805 0.24079682 -1.4743941 -0.9136534 -0.25509542 -0.8512662 0.12210226 -1.840325 -1.1880666 -1.649271 3.601269 -1.3391156 -2.9947314 0.6698462 1.4410738 1.3591411 3.2750456 0.5003888 -0.60863805 0.44243258 -0.6210906 3.8451128 0.9192194 0.54807353 -2.6622465 -1.6406895 1.8542159 -1.8492105 1.1860795 0.5324085 -1.7544606 1.6979551 0.63473785 -0.9845675 0.87591267 -2.13401 -1.4067919 -1.4318666 -4.2053995 2.5111172 0.2699792 1.0366889 -2.67609 -0.2991819 -0.020891223 0.21430513 -1.1501951 0.09587199 1.2292709 -0.9759034 -0.9016759 -1.6100763 -1.2709721 -2.3693438 -2.3731785 -0.9752129 1.2782624 -0.66047674 0.2309303 -0.34652576 0.098622896 -0.34866622 0.2860571 1.3920825 -1.7992698 2.3070428 1.9076254 0.27441728 -0.3007581 -0.10817417 0.8625216 1.0275332 -1.968536 -2.0662735 -0.63072574 2.7913394 -0.6083119 0.8723281 2.256138 -0.72428 -0.31168354 1.96414 1.7051619 -0.9156601 -2.1299386
513 0.9485021 -2.4164383 1.545158 -0.07445493 -3.4265368 -1.7232269 -0.36789328 -1.0711398 -0.15251377 -3.149265 -1.1774768 0.7917728 1.805009 2.018971 4.171181 -0.052021183 -4.360987 -1.8010292 2.1799123 1.4694405 0.005977902 0.13151252 -2.3527958 -1.499809 0.05801441 3.6754174 3.6225812 2.5301697 -0.43297747 -0.8096999 1.301301 -1.044637 1.7535493 0.66769195 -1.6742134 -0.9839574 2.1377106 -0.2058619 -2.9509888 -1.9147818 -0.18875575 1.1931108 2.4282403 3.67205 -2.3604813 2.6270149 -2.1669917 0.112382315 0.5595853 -3.3342354 0.13268843 1.5438825 -0.6831663 3.708101 -2.0981736 0.75581735 -1.6843389 2.4708471 0.49484584 -0.125941 -1.047994 -3.3033981 -0.97722566 3.3326092 -0.14096746 2.059111 -0.35666728 -3.9192054 -2.108552 1.6351599 3.2115042 0.14007829 -0.46073595 -1.4020387 2.5289319 2.3465457 -0.950731 0.50922674 -0.62143034 -1.8939863 -0.10372371 0.075287744 -0.893553 -0.8680129 1.1738224 -1.439833 -5.7434525 2.4433959 2.669725 -0.6458397 1.6696476 -0.62231475 -2.7364988 0.3161479 -2.0684211 0.5903117 2.7074292 -2.8491955 3.6096752 1.9387143 0.119940646 2.4412653 1.8624599 0.21939665 0.42292747 -1.7715415 -2.7613027 -0.726841 1.6422226 2.3106463 -0.6269845 -0.2058431 0.011618224 0.77249265 0.7853982 1.5015396 0.85833263 0.69483435 0.99802876 0.45384392 -3.6991796 2.075445 -2.1129014 2.1291037 -1.1920354 -2.3315887 -2.4684355 -0.52471477
1180 -1.4987191 1.2061021 4.000226 0.2543155 -1.7131423 -4.631208 -0.69206643 -1.7341539 1.1867229 -1.2670803 -1.8566312 0.39960596 1.800472 1.8611231 -2.2529016 -3.9037955 0.19951649 -1.7648876 -0.043025304 -0.8318281 -0.5772985 -2.0118759 -1.827988 -0.24460012 -3.1724527 0.15108351 2.7854512 0.27672136 2.8631232 0.3734144 -2.4109116 -1.6734283 -0.65651405 -2.365585 0.87253386 -3.692158 -1.4072884 -0.38794452 -0.6772911 -0.46188843 -0.45114702 0.39452207 -3.1653128 0.0499463 -1.131345 -0.23784995 -1.8954531 1.7168179 1.7426765 0.6249756 -1.9723328 2.3045096 0.8908839 1.7590455 -1.159566 -1.3389076 2.4501336 -0.561469 -2.7549314 -3.0344884 2.506426 2.9452536 0.37486064 3.213018 2.1678114 -0.9012593 1.2054129 4.368538 -1.6583806 -0.7406717 -2.1433794 -1.7581475 -1.1266283 0.790573 0.48514467 1.5520778 -1.7726008 5.2006316 -0.3020959 -1.0826356 0.3607474 0.11225045 1.378419 4.249051 -0.511703 -0.73291487 -1.8644556 -0.85560936 0.7755294 2.2806702 -1.0421271 1.5610256 1.6658272 4.2957416 3.3345807 -0.5209391 -4.2408266 -4.6660805 1.7516717 2.7104824 0.77817994 0.62548476 -1.3419315 -0.33017015 -1.7566307 0.49706295 0.33040616 2.4322844 -5.446448 -0.14611004 -0.6161032 -1.2531329 -1.1207279 -0.10196947 -0.6425838 -1.0401621 -2.0265067 1.7307088 -1.3008274 3.1093297 -1.2422318 1.5368506 -1.0939009 2.633334 2.0897243 0.7326879 -2.8319278 -1.6815447
1112 -1.0700834 -0.3885826 1.820481 0.45878625 -1.5733268 -0.9489536 -1.3789064 -1.9336329 1.1367732 0.23251247 -1.3354964 1.5512406 -0.18877327 -0.7303489 2.6770468 1.5135635 -1.2200251 -0.8757762 0.47307566 2.40666 -2.0726116 -2.3759975 0.31170538 -2.260401 0.69917434 2.6650105 4.7980757 0.13766144 -0.19040859 -0.2738934 0.30154905 0.72756684 1.7457757 -0.6956701 0.1530514 0.8491667 1.4185736 -0.28472406 0.44904998 -0.89670795 -1.2902564 0.7976854 1.5687649 -0.74901164 0.053472906 1.6232587 0.054456137 0.007198812 -0.8744908 0.52902764 -0.67041236 -0.55043614 -0.9230201 3.1981828 -0.8115843 2.5338993 1.027902 2.2781074 1.2237401 -0.19470818 0.4895866 -0.29341844 0.086750925 -0.10587408 1.3372697 0.85546094 -0.38984817 -1.5626807 -0.11941646 0.6280113 -0.20641392 -0.70609003 0.004121288 -1.4619141 -1.9808376 1.0263668 -0.2669293 -0.10561811 -4.226999 -1.2413789 1.3589109 -1.078674 -1.0713485 0.08668319 -0.5673316 -0.2593771 -0.3052978 -2.2418616 0.116287515 -0.34903184 -1.3673717 -0.179384 -0.57950336 1.5418811 1.2798991 0.921981 -1.0748687 -1.0924809 -0.20536634 -0.79034036 -3.4682345 0.3327973 2.3537765 -0.38114005 1.1431538 -0.16339208 4.066685 -1.4422885 0.7183979 0.21027575 1.9145867 1.4710181 -0.38195717 3.3462396 0.21157838 1.0091517 -0.8372311 -1.9635482 4.5993166 -1.0428467 -1.0863839 0.02208387 0.4404871 -0.19588244 0.5897371 -0.21148805 -0.91975737 0.840305
548 -1.6779128 -0.8571005 0.25977087 0.21401432 0.562247 -0.5814804 -0.8188974 -2.8347356 -0.3178419 0.59252447 -0.20373629 1.0277959 -0.91964 2.5831523 -0.6441558 1.9550008 -0.870862 -3.8670092 -0.405744 1.0596787 0.822174 -2.117378 1.9723638 -1.3317032 1.3954866 1.9444565 0.71411663 -0.3286249 -1.8320513 -0.9550784 0.53203166 1.3560921 0.75546473 -0.014512072 0.90923005 -0.37264732 1.8946228 -2.3719404 1.1774826 -0.6264259 -0.32711688 -0.1334227 1.9086353 1.4787406 0.25312415 -1.795196 -0.90774095 -0.09635035 -2.2183826 -3.9279552 -0.74198407 -1.1330934 -2.6142511 4.692186 -1.0336521 0.33668506 -0.56548375 0.9414091 2.3832989 -0.10868888 0.5464888 1.6442167 1.220728 3.7772546 0.97299874 1.2508278 1.8098918 -0.73199326 0.22363488 0.9236478 -1.9485568 0.6228808 2.7605975 -1.2731243 0.6933713 1.5325035 -0.17490092 2.4216027 -2.2240736 0.16217111 -0.83950543 0.2774868 0.43991897 1.0120653 -0.7001547 -0.9029105 1.4709885 -0.7787339 0.72586423 -1.7399435 -0.5527722 0.40789518 -0.7955647 -0.11087668 -0.17789125 0.46592167 -1.054428 -1.1757455 0.26707843 0.23253272 -0.027671246 -1.8999195 0.9484344 -0.5412422 -2.0490408 0.81727564 2.8323681 1.5423905 -0.7762298 0.867543 1.6135724 -0.7138436 -1.4257486 -0.22244594 -1.4868063 1.1582342 -0.053047884 -1.1102291 2.013881 -1.8774726 1.4276996 -0.17951223 -0.49371183 -1.8253609 0.055088364 1.2912748 -1.5221426 0.83720756
1262 -3.702934 -1.7323275 -0.37773016 -0.6442828 0.28709173 1.0666448 -0.16172363 -3.6694353 1.45441 1.1941674 -0.24938385 1.2331415 -0.8076968 0.65987504 1.3264716 2.2043846 0.84384966 -1.3511691 1.1896569 1.3843262 -2.5442007 -2.3557336 -0.013209064 -1.1554711 0.02566751 0.8296415 0.036429927 0.3392061 -0.9377689 -1.5286162 1.7077713 1.5930512 0.78477716 -0.34749982 0.4068244 -0.3246915 1.0844339 -3.3223333 0.57384574 -1.6991564 -0.6668108 0.40741232 3.7691588 0.23288862 0.7457677 2.680223 -0.7429158 0.39932555 1.2918233 -1.7521794 -1.0581342 -1.1786209 -1.048137 1.2714162 -1.6204743 1.936244 1.0884675 -0.7820935 1.7416098 2.0368557 0.4536888 0.8488693 2.1343224 0.7324241 1.4382175 1.5468297 0.28733674 -1.8898748 -0.7759965 2.0581996 -0.12158406 -0.5072285 -0.33266667 -1.0376292 0.25889894 1.3003372 -1.2245216 1.1324943 -1.7577755 -0.15656914 -0.8122635 -1.0836736 -0.63219666 0.36189857 -0.24458109 -1.1539702 -0.87136424 -0.76438695 0.26012692 0.32979456 0.25858477 -1.5567695 -1.5236154 0.41372108 1.1823697 -0.1060625 0.28931123 -2.3568215 -0.8324328 0.77523 -0.20738547 1.104392 0.4828106 0.27208868 -0.77178025 2.0782871 3.8319113 -0.9746257 1.3381175 -1.5146393 -0.52484715 0.46965757 -0.5912092 1.5761851 -0.912989 -0.39411044 -1.8386297 -2.2732327 2.779576 -0.4171328 1.4296159 -0.17072764 -0.32646874 -0.6798877 1.1766096 -2.3259518 -0.8861891 0.46488777
1027 -1.0562909 -0.3880668 1.1277353 -0.33468103 -0.91172093 -0.46169716 -0.15261886 0.575402 1.6803149 0.70792186 1.2209909 2.7051997 0.45176333 1.8360863 1.2474409 0.85203534 -0.45958382 0.7224276 0.84612006 0.97888815 -1.1634783 -0.8811917 0.74939406 -1.6368583 -0.6129598 1.8305455 0.106574915 -0.58344316 0.9316396 -2.6532848 1.0019982 0.885644 1.6336377 0.37272903 0.37608415 0.672844 1.6144289 -3.0721347 0.08867163 0.05946274 -0.7324955 1.8680742 3.6913178 3.1527245 -2.058693 1.816134 -1.7070373 0.3714203 -1.3047476 -0.016746264 0.17143285 -0.09842818 -1.5291507 2.2340229 -0.038141835 1.6317116 0.50628555 2.8285615 2.1376963 0.66840917 0.6060085 0.63709176 2.426065 3.3366687 -1.3446089 1.1926842 -0.5017657 -0.53099173 2.0009818 2.076869 -0.12504621 -1.0863777 -0.291463 -0.918022 -2.791985 -0.27474505 -1.843237 2.2993236 -1.6426854 -1.2015394 -1.8523049 -1.6309153 0.36522317 1.8992084 -0.725575 -1.5849837 -0.5394331 0.20641316 1.3793933 -1.0733888 1.8602936 -0.09229321 -2.3813198 2.1691222 -0.06564365 0.6529681 3.076468 -2.5542152 1.1558291 0.4031065 -1.7752141 -1.6295195 1.3325388 -0.9571265 -1.1371624 1.0105038 1.2795475 -0.92662394 0.65735066 0.8552931 1.7922581 2.356612 -0.13194413 1.6599315 -0.0006539953 0.16735424 -0.58641195 -1.8651087 2.5193672 0.1181381 -1.1908039 0.1969948 -0.058137797 0.73167914 -0.3909607 -1.9744503 -0.13607123 -2.1622865
43 -1.4382236 -0.52183074 0.32794982 -0.9508837 0.35902768 -0.30108628 1.4319453 0.6550179 -0.07610594 -1.3858292 -0.49652734 1.9991132 1.9475873 1.0521677 1.883369 2.317337 -1.8979183 -1.3683279 1.1656027 3.3652601 0.22901517 -0.6752841 0.31455246 1.2465769 2.675654 2.1876013 2.2956147 0.5842278 -0.32118484 -0.6340606 1.4953687 1.3526148 2.3745043 -2.4264336 -1.7134881 0.3911351 -0.0067598647 -0.17865238 1.9066621 -0.013274399 -0.2651258 0.6785186 2.2341285 1.2226783 -0.7364237 0.9572022 -0.7917117 -1.1792814 1.0401739 0.9684255 -1.2290691 -1.230634 -2.2686548 2.377544 -0.8533224 -0.029365381 -0.029814366 0.78510433 1.5827283 2.0624466 -0.70239323 0.5408951 -1.007588 -0.59116316 1.7148517 2.7090652 0.53926396 -1.0408771 0.9058047 -0.20546326 -1.2083734 0.26218563 1.9720501 1.126536 -0.021235913 1.6710887 -2.504073 1.0781745 -3.482556 -1.8186156 -1.3881109 -1.4251294 1.8297726 0.46761388 -1.0014151 0.06726542 -0.36962032 -1.6796315 2.0441382 -0.38368252 -0.44126597 -0.33140254 -2.6180325 0.6268641 0.10294603 0.5456317 1.6312747 -1.1613773 2.25114 -0.6070818 0.08429791 0.8381982 0.10763177 0.89079505 -0.7659501 1.7557739 2.6031778 -1.065207 0.5151703 1.1283553 2.8160508 1.9765048 0.14999317 0.2358188 -0.9287767 0.21243225 0.53913975 -0.03888259 1.3113434 0.08834256 -2.1411629 -1.583598 -0.33042958 -1.7147464 0.15857182 -1.8688122 -1.7759104 0.3080888
1113 -1.6344872 -3.2256107 -0.35190758 0.33876222 -0.7204913 -1.4597784 -0.8816273 0.8014891 -0.13162787 1.5630515 1.3425442 2.6958606 0.15872212 0.87161016 1.2519999 2.2347882 -0.032859016 -0.1506369 -0.6400099 2.1539385 -0.07810017 -0.8726012 0.021054035 -1.2985201 -0.9788589 1.6440233 -0.15877418 -0.43484816 -2.1770797 -2.6268616 2.6953871 1.6787127 0.7936013 -1.5188175 0.88327956 0.28031245 0.52187 -1.9778981 0.79285 1.1862864 0.13479924 0.98281145 1.4007342 1.349107 -0.25935626 -0.07856094 -1.1536564 -2.1150951 -0.47012538 -0.3951598 -1.4260063 0.4932927 0.57244897 1.2820014 -0.6780314 2.734921 1.0987338 0.9042674 1.8960409 0.92363507 1.1729001 -0.14508818 2.391798 3.0018053 3.048094 2.4346023 -0.08429293 -0.86304474 2.2305183 0.27169383 -1.8147885 0.42783105 0.80338806 -1.516425 1.1460929 2.1764328 -0.5289127 0.47939423 -2.2159379 0.03668045 -1.7924758 -0.29086423 -1.1029836 0.5686997 -0.45623004 -1.5693737 -1.5876397 -1.3092655 -1.363184 -1.0150714 0.50125355 -1.3054641 -2.1419654 1.5097157 0.068277426 1.6456507 -1.3947529 -2.378357 0.49063516 -1.3052588 0.3236787 1.6136626 1.1626033 -0.97411776 -1.1876363 0.31542832 3.9955666 -1.5143486 0.003969829 -0.33178684 2.7928493 2.0654478 -0.56685036 1.9705127 -2.5366077 -0.17075339 -0.2629172 -1.2468066 2.8418655 -0.110820614 -0.7573297 -0.22484775 0.40005162 0.30675992 1.5769836 -1.1170148 -1.6210724 0.8739948
940 -0.13917172 -0.73089963 -0.21942829 -0.81277525 -1.034942 -1.088476 -0.9818932 -1.7464898 1.7969998 -1.2273443 0.8044476 2.050271 1.0320199 1.7940419 3.4240177 1.5659935 -1.0811673 0.7744168 0.33433363 0.46616888 -2.8946955 1.0771921 1.85473 0.74993104 0.26870513 1.7056912 0.17733312 -0.569441 -1.2433602 -0.20580952 0.6522522 2.9967642 2.7989304 -1.2688304 0.4362138 -0.4860343 -1.619946 -0.6360812 0.46639115 -1.9009618 -1.3974506 -0.81365633 1.6258194 0.9190005 0.60089403 2.7443366 -2.9253185 0.21470994 0.54166704 -1.7282623 -1.2674373 -0.070162214 -1.732636 1.1326196 0.33762327 3.3825488 -0.2244827 -0.26084766 3.703048 0.91533214 1.1431314 1.4532267 -0.021696968 1.5623859 -0.2669887 2.6757684 0.9875959 -1.3599 0.6684758 2.5524476 1.3108383 0.0036559913 -1.666741 -0.50259256 -0.08646582 -1.5406817 -1.3997037 0.9605395 -1.8534477 1.162342 -1.9468697 0.020641737 0.26730123 1.3979777 1.396107 -2.1631267 -1.046063 -0.13806584 0.7732575 0.65620255 0.0988607 -0.49482918 -0.7661945 2.5412195 0.043266594 -0.42764565 -0.70913637 -2.8050065 -0.4002306 -0.59352356 -0.8971305 -1.0738786 1.4036158 0.8267314 1.1907887 1.3734688 3.0737877 -1.5743655 1.0387055 1.3611956 1.1833504 1.1800762 -1.1754882 0.24413882 -1.2204858 0.25432277 -0.4191347 -0.7624607 2.9665203 1.2893293 -0.22394146 1.6790392 -2.0058317 -1.2660729 0.94300264 -1.5268918 -0.1606626 0.50782394
41 0.16544817 0.46816966 0.349448 0.41796854 -0.52861035 -1.2402616 -2.4306664 2.8865273 0.48279402 -2.2249415 -5.1244407 -0.57573986 0.61707395 -3.5585003 0.5809598 0.7534527 -0.99012715 -1.130253 1.4291044 1.6917477 -2.699037 -5.0742583 0.39698142 -0.34099385 -0.5366 3.6744504 1.2829192 -1.3680192 -0.3542088 -2.2736883 1.9625105 0.05955842 1.8419828 0.21965037 -0.6062048 2.1932359 -0.13884935 0.7965294 0.7220322 2.0666566 3.6823525 1.688707 1.0394194 1.8972443 1.6600645 0.17152405 0.09199095 -0.50304216 -0.80009925 -1.8402338 1.3685201 -1.3614856 -1.7908483 1.9106208 -0.23821257 -1.0586051 3.6982088 -1.1293805 -1.3867185 -3.8168542 1.0463662 -3.6733892 -2.2491868 -0.52503973 1.1931623 2.9304154 -0.57391566 2.6606543 -3.4969018 -0.21800698 -0.70227796 2.7133446 0.68944633 2.90544 -0.22413845 2.6932929 -2.761984 2.6784565 -3.4649572 0.8706125 -1.1801474 0.9083501 -0.95089245 2.5969288 3.486591 -0.46982235 -0.4666239 -2.10628 0.80898976 0.3318767 -2.2411351 -0.5197843 0.2784642 -0.15392976 -1.7842522 -0.15055484 0.8075101 -0.96357214 -2.1571467 1.4789709 3.0255876 0.7180378 -2.851347 0.2972091 1.2729263 -0.5543551 1.9391211 -0.039742853 -1.6667438 -1.7272092 -0.54693305 0.04862678 -0.021483585 -0.8844598 -0.4802457 1.2812895 -0.47170216 0.44273156 3.2444127 -2.0301545 -2.0364594 1.0404518 -5.501731 0.49131995 -2.1003087 -2.5150235 -0.9477325 3.150244
463 -3.6737578 2.070829 -1.1086059 0.35012352 -1.575454 -2.6034214 -0.6776525 -1.6960256 2.6056633 0.7460058 0.30717203 1.8630222 -0.59480244 0.7736495 2.1496198 0.26385853 0.6825882 -2.3803742 0.53153074 2.304495 0.9619402 -2.3806045 1.9890091 0.49738517 0.8055472 0.22145385 0.7939043 0.22842814 -1.4624041 -1.001853 -2.2532856 2.552714 2.7924418 2.5974107 0.076667115 1.0995768 0.49880427 -0.5682446 -0.9114535 -1.0188552 -0.0051991735 -0.45257953 0.5415937 1.1172688 0.20374471 0.9209769 0.2168019 1.4008244 -1.0119531 -0.96018684 -0.016647361 -1.0206859 -1.9370562 1.3357769 0.59809667 1.963575 -1.2661296 3.1599565 1.7339113 0.9263924 2.1413844 -0.019440971 2.0092375 2.260592 -0.77957094 1.3584875 0.11427792 -1.0348824 -0.10897681 0.45468116 1.174009 -0.29393786 2.517693 -0.87338454 0.2635753 1.2389433 -0.91368705 2.4990518 -3.6714902 0.5874728 0.0074067093 -0.75944066 -0.53025055 1.5303309 -1.4595484 -2.493688 0.2410446 1.2588655 1.7574892 -0.16704 1.3753598 0.9297381 -3.518502 0.045629717 1.598366 -0.44820002 -0.36164576 -1.682625 0.6273635 0.7184293 -3.1354032 -0.1784048 1.0736716 2.1780295 0.2665181 1.0791005 0.7665096 -0.64665985 0.21561608 0.22249657 3.240455 0.85921955 -1.3596411 1.3066779 -2.722109 -1.6969768 -1.5250899 0.08599106 2.3384266 1.1232214 -0.61092955 -0.11126334 -0.100775786 -0.54933643 1.7898513 0.07671969 -0.59288937 0.25293073
541 -1.4311587 -1.3703775 -1.0214905 -1.5048298 0.48872286 -0.5515296 -1.0328486 0.5246873 -0.55013907 -1.0468723 -0.83852386 1.616847 -0.07418928 1.0559965 0.95562917 1.7874411 -0.45980406 -0.43259934 2.468238 0.7232023 -1.7744695 0.03677989 0.827667 -0.9495181 -1.1464976 1.5668764 0.7578192 0.15840949 -0.92899275 -0.9697914 -1.7918533 2.6682172 2.2373126 -0.25327444 0.37627172 1.4258616 0.573537 -2.7491708 1.0257208 0.038940717 1.1066264 1.0753745 2.8777587 1.2375656 0.6448096 0.27678475 -0.17668343 -0.74608535 1.8263166 -1.5814838 -0.9142923 -1.9578961 -2.0094478 2.211748 -0.81396514 0.9290006 0.49005 0.77785784 1.2937446 2.1066003 0.80003834 -0.7448777 0.87391055 0.7564858 1.5689948 3.197032 -2.975219 0.83254176 -1.8035847 -0.8747785 0.43494803 -0.70427984 -1.8853648 -0.7146035 -0.36527887 1.3829932 -1.086965 1.1457121 -3.9136848 0.23923457 0.12344321 -2.2448304 -0.111201234 -1.2898873 -0.21723266 -1.3516535 -1.4626222 -0.61289936 1.3721344 0.5167981 -0.61036485 -1.2332077 -2.7161674 2.0053456 1.1908774 -0.79200304 -0.28413248 -3.529089 -0.20110576 0.5648857 -0.32758227 0.033317406 -0.49630702 -0.55130756 0.035338387 0.13038194 3.411993 -1.8984516 -2.677594 -0.24385053 0.8861484 3.0288243 0.30623785 0.51029575 -1.6030529 0.0066909445 -0.18661009 -1.7226728 2.8706787 -0.7489797 -0.8625435 1.1879069 0.2538788 -0.5568329 -0.7015213 -2.4444067 -1.4012845 -2.5665975
1272 -1.3583201 -0.39489967 -0.9020763 0.74135196 0.72019947 1.4380239 1.0470366 -0.58344847 1.300122 -1.6198735 0.7480409 1.8265835 1.1286154 0.3992222 1.2105954 1.3741057 -0.21177822 -1.6155874 0.60825825 -0.68029094 -0.45109335 -2.8822649 -0.38979626 1.1100008 0.92041236 2.6253133 -0.04579658 0.48361757 -0.6627716 -0.7452422 0.3066307 0.45750192 2.2503295 -0.21233939 -0.33683106 0.09909708 0.85283446 -0.64321756 2.0369713 -0.0361138 -0.17600186 1.2756772 0.49403328 0.6166181 1.8218557 0.88113874 -1.8510766 -1.6165361 0.8928402 -0.34271842 -1.0299231 -0.85863554 -0.4947681 3.0074463 0.39093643 2.1608691 0.38979965 0.78494483 1.8940878 1.6204627 1.196349 -0.2440117 0.45598763 1.7996454 0.796589 4.305276 -0.34009194 -0.62975156 0.28724018 -0.5264391 0.07218186 0.9862397 0.6228618 -0.42641392 1.8954248 0.27479938 -0.48551083 0.9510309 -2.361283 -0.325922 -1.7977129 -1.3152999 0.5085407 0.7000711 -0.75228316 -1.3002812 -2.631909 -0.9351328 0.522457 1.3696558 0.119340375 -1.1412122 -2.0445123 2.470943 -0.11632351 -0.71547097 -1.850832 -3.3227246 0.38743198 0.12159691 -0.15252437 -1.6211755 -1.1275163 0.90691817 0.28599656 0.28675947 2.8809035 -3.089249 -0.29553318 -0.18769753 3.1057014 0.1639505 0.9825057 1.9563804 -0.62433356 -2.4771535 -0.3196382 -1.4286395 3.2559795 -0.27151313 1.6416951 0.30592406 -0.8958282 -2.012266 1.0937253 -0.04245803 0.08898562 0.67295015
1277 -2.0782828 -1.9224054 -0.64608276 -0.029337263 -0.804249 -1.9425524 -1.1229908 -2.0478258 1.8714865 -0.69024175 0.5350272 2.7130587 0.5249837 0.99952376 1.1131268 2.3737843 -1.1688206 -1.7162681 0.5477508 1.3357246 -0.026513685 -1.1349003 0.75734967 -1.8927314 -0.3735344 0.18938205 1.4115021 0.589411 -0.584612 -2.1188369 -0.0013158345 1.6696188 2.2142737 -0.22814846 -0.500772 0.3002862 0.7550396 -1.840862 1.3950334 -1.5886004 -2.1341805 1.7143837 0.38284123 1.152241 0.56643075 2.436332 0.2590873 1.5581102 -1.7580295 -2.4877439 -2.500615 -0.843151 -1.6105729 2.1822987 0.03898039 0.57383287 1.7624255 -0.06219622 1.5792209 1.5021642 1.7272358 1.0765953 1.5798055 2.692153 0.723221 1.7879906 -0.4734564 -1.5608408 -0.412765 2.299642 -1.4619508 -0.9035521 0.17437612 -0.5851022 0.4324979 1.0003259 -0.85434926 2.40869 -2.690332 -0.41520154 0.008694785 -0.7915857 -1.4855791 1.1095557 -1.3056445 -0.41491064 -0.16199467 -0.71704656 1.0248524 0.9681995 -2.0968766 -1.9783626 -2.0896733 0.2919621 0.539476 -2.4621239 -0.8681572 -2.7294166 1.0946922 1.8794129 -1.2730855 -0.05403826 -1.6921344 -0.27736157 -0.32039738 0.82200545 0.9801609 -0.053367082 -0.5476509 0.20160544 2.8077652 0.009578122 -1.8167933 0.46910936 -0.5108443 0.013008117 -0.8515277 -0.5747505 2.7278492 0.6270248 -0.95936304 0.42555657 -1.7079791 -0.040016573 -0.38966277 -1.1938417 -0.453534 0.252523
501 -2.8614988 -0.8717434 -1.6006322 1.5185821 -0.53252393 -1.8771248 -0.36602333 -2.0821862 1.8256296 0.18174602 -0.95860094 0.7852493 -0.026396574 -1.5376217 0.18712363 1.7256814 -0.1498127 0.4686278 0.8450988 2.7479289 0.24402928 0.25332204 0.8562285 -0.2795671 0.22756377 2.8253078 2.5664465 -0.43191835 -1.3105503 -1.6904323 1.1893753 -0.061882783 1.7153277 1.01228 0.95284057 0.88159436 -0.54501826 -0.89456415 1.3233249 -1.5819577 -2.1152334 0.08804695 0.12330506 0.6217114 -0.7414364 1.0251682 -1.1650399 -0.15974851 1.0120242 -0.6546268 1.0215423 -1.1554375 -1.2899569 2.317037 1.3500617 -0.10711394 0.8973952 0.65560055 2.3425612 0.9621082 0.6339761 0.11572618 0.31199828 2.7866592 -0.11105135 2.2304187 0.19210508 -0.7935681 1.5558115 1.5410812 1.2175779 0.78371894 1.1815867 0.5571919 0.9253875 2.9957573 -1.5199859 2.4270654 -3.047544 -1.5996128 -0.22708204 -1.3235588 -0.74424756 -0.6022032 -1.2724668 -2.5925617 -0.9329857 -4.1353083 1.9278061 -0.37332103 0.001892273 -0.8053985 -2.6931722 0.546235 1.1380706 0.20146176 0.6220759 -1.8866103 1.0807508 0.76237696 -2.1754062 0.6423687 0.31852826 0.33919427 -0.009803101 0.54564977 2.607093 -2.167654 0.16373739 -1.4983664 2.0649137 2.5933297 0.14636652 2.0787067 -0.65381044 1.5194888 0.7647376 -1.752965 1.8587595 1.2070261 0.7194501 -2.0285907 0.32737184 0.44777504 0.5519676 -0.09865588 -1.209664 -1.1286948
565 -2.8599799 -1.0257188 -0.039778102 -1.085636 -2.7184832 -0.6967175 -0.64071584 -0.43255213 3.865985 -0.95866287 1.2519649 0.6316094 2.2395482 0.8812744 4.077861 1.022103 -0.7011071 -0.62576187 0.8126296 1.59185 -0.04955867 -2.6684952 -0.6180235 0.098552786 -2.2523184 1.2791795 2.1665869 0.36961776 1.6664631 -2.1751757 0.40554196 0.94913197 0.528097 1.699428 4.00379 0.6876442 1.4904518 -0.2660539 -0.20993584 0.41609165 1.0029104 2.0560436 1.3577343 2.6685762 0.4529167 -1.1322017 -1.5247463 0.89322525 0.03680013 -2.4954543 0.13162002 0.39256787 -2.3351045 1.552539 -2.4560723 1.1221724 1.0809375 3.1663687 1.7325383 2.488165 -0.41789585 2.3609452 -0.24882099 2.804798 -0.57594395 0.14852567 0.87487125 -1.4386914 0.36689806 0.87902546 0.6770107 -0.2794289 -1.1867833 -0.37662125 1.4943366 1.4807745 0.8807499 1.9381224 -2.3095584 -0.8586672 0.7748296 -0.7014477 -0.66401374 -1.5567108 -0.23504238 -1.2840118 -1.4843124 -0.096778534 0.6086701 -0.4870029 2.8187609 -1.3286377 -1.9680836 2.8659687 -2.0648959 -1.1012452 3.4883406 -2.8375902 -0.54527444 -0.426667 -2.8795674 -1.8557261 1.6859183 2.3853192 0.4903142 0.16487943 -0.6694543 -0.6991522 1.3804065 -1.6231282 3.0812426 2.3230228 0.8270649 -0.12884751 -1.6150322 -2.3183172 0.63331443 -1.8784044 2.459631 0.86655563 -0.9741507 -0.62643355 -1.7670825 0.70955765 0.62679917 -1.2665236 0.9360576 0.0021535396
756 -2.271626 0.48751387 0.67767155 -0.81470835 0.38677096 -0.9122543 -0.39681998 -0.89843905 1.8965446 0.32134596 -1.3746994 2.0909886 -0.0022250977 -0.97987103 1.034415 2.1836743 -0.2547433 0.15404662 1.0033271 1.2725949 -1.280524 -1.4004915 1.2844961 0.31812856 0.25185397 2.2996325 3.03294 0.5716995 -2.135208 -0.71294194 1.1263303 1.8588238 0.8223529 -1.5183071 -0.7947648 0.91656137 1.4801224 -0.8214111 -0.68265843 0.73683393 1.0688924 2.03743 0.6269979 2.4848356 -0.30885246 1.4291317 -2.0840724 -0.49122697 0.6669253 -1.0041348 -1.4094788 -2.1365266 -1.975751 2.9437354 -0.33983707 0.26930115 1.7777108 1.1986643 0.26961297 -0.5582216 1.7400851 -0.027432825 0.3183236 1.1699035 2.0219035 0.3206887 1.2013172 -1.3356396 -0.0992446 -0.13658108 -1.1917741 0.6966512 -0.513374 0.35857967 0.74594253 1.8018744 -2.062156 0.6829229 -2.5924027 -1.7655381 0.023749076 -0.29751682 -0.88266766 -0.6140184 -1.227387 -0.30741537 -0.058424264 -0.91984946 -0.4333615 1.2181648 0.9643061 -1.0161742 -0.35708967 0.5534328 0.35432312 -0.5722461 0.19920668 -2.752627 -1.4297557 -1.8996065 1.5037078 0.35439843 -0.8710026 0.12566139 -0.95425487 -1.0821921 1.9130384 -1.2524917 0.26648852 0.6392641 1.8818755 0.8199024 -1.0583642 1.8671727 -2.4372644 0.99186057 -0.3539718 -3.6172976 3.7107728 -2.846946 0.059123445 -0.4670534 -1.980926 -1.7977235 1.876581 0.15743752 -0.9518315 -0.8328815
1299 -3.1074283 0.48721486 -1.2457899 -2.013213 -0.9475911 -1.5665025 0.54609805 -1.3442849 0.19749855 0.5973556 0.13604179 3.7072763 0.10088298 -0.07389949 1.1337453 2.187891 -0.10104253 0.027630735 0.11175966 0.31564158 0.6587402 -1.8840228 0.36489773 -0.3834274 1.1664956 2.1566052 -1.5331293 0.7670658 -2.5522337 -0.9623173 1.6151419 2.8645627 0.83219326 -0.6037288 0.49045312 -0.0015065693 1.3315586 -1.5489659 1.0498861 1.3799477 -0.3213479 -0.37742224 1.4241866 0.7329968 0.192607 1.0776818 -2.724431 -1.0205084 1.0938425 -0.34276143 -0.5361083 -0.6359427 -2.1866229 0.94639456 0.1024582 1.4840662 1.6634318 0.38554874 2.8233507 1.6579597 1.7203199 1.379211 -0.2530289 0.70801806 1.1716598 1.3811393 -0.33108374 -0.18933247 1.1112859 0.7877682 1.7764866 -0.83919245 -0.8028474 -0.70847875 0.93703604 0.172029 0.39276487 2.2889626 -1.9857144 0.05418518 -0.889183 0.081170365 2.421727 -0.027566094 0.66548353 -1.0360563 -1.2321495 -0.15225437 0.33405885 -1.4696853 1.6523875 -1.2903537 -3.1644971 1.6050903 0.9483686 0.28278133 -0.5264744 -2.7246912 0.859335 0.6673294 -1.7753787 -0.72035396 1.0002111 0.84565306 -1.4734904 0.4568889 3.2833638 -1.2272245 0.5926594 -0.5432349 0.38644385 2.7789817 -1.218269 3.0251288 -1.0445011 -1.1798482 0.061494622 -2.0482848 1.9477355 0.41380876 0.99055636 -0.26620385 -1.5054493 -1.4870741 -1.6577964 -1.7142804 0.27527833 0.3512529
1086 -3.2969398 -0.35178313 -0.2633542 -0.92574424 -0.8987154 -0.025187079 1.0859663 -0.65310484 0.86230105 -0.27921337 -1.0938172 1.6213437 -1.1517661 0.46579558 1.9893445 2.1413543 -0.2224647 -2.5431616 0.045968227 2.880065 -0.3007661 -1.785168 -1.3999466 0.19301343 0.16725957 2.169553 2.7630486 -0.82966626 -0.5043017 -1.8652805 0.23339929 0.9382198 2.3805215 -2.0913885 -2.4463043 0.80189425 0.6594795 -1.7796459 0.5024648 -1.7895501 -0.4456743 0.8283502 1.5212808 1.814299 0.0499357 -0.2660351 -0.34839082 -2.3369036 0.29976603 -1.7618315 -0.54048234 -0.9350532 -0.56664205 3.1964893 -1.8896607 1.6307217 -0.15701318 2.6031783 1.2060844 -0.718799 1.3634558 -0.9788261 0.23116873 1.1457117 1.9768363 1.6607873 1.5905809 -0.8679059 1.5655439 1.9911891 -3.2988327 1.0420167 0.1768212 -0.34816912 0.02061538 3.028666 -1.1035283 1.2534044 -2.3081217 0.4169171 0.40603116 -1.0908427 -0.7162867 1.7065883 -0.007627225 -2.085652 0.05857289 -1.8875569 0.89458734 -0.924207 -0.93807316 -0.43435752 -2.583419 1.4610583 0.8996212 0.6950434 -0.23965353 -1.6648893 0.45861024 -1.3710139 1.6940962 -0.007365571 -0.07493465 -0.5036914 0.18131046 0.8988463 0.9459851 0.61994135 -0.97898144 -0.28242064 2.1046104 1.0876874 0.67740834 -0.9163193 0.010390163 0.030605853 -2.2878168 -1.6568506 1.5914501 -1.6065016 1.2590368 -0.46999398 -1.8806479 1.0051229 2.3571548 -0.75157726 -0.85556215 0.17042941
1063 -1.606607 -2.2164245 2.123502 0.5778073 -0.93726104 1.9326749 -2.6493058 -0.8916927 0.38470173 -1.857009 -0.11724899 -0.5376211 -1.6425287 1.1900604 1.3639752 1.0493845 -0.3312946 -1.0187597 1.1216949 0.7457955 -0.017570684 -1.1001924 -0.16562407 -2.3171287 1.29884 0.9799882 4.294196 0.44747075 -0.43745524 1.6374344 0.14136599 0.36153004 2.657106 -0.0142611535 -0.7087816 0.82260555 -0.33314303 -0.765444 0.81686515 0.5396613 0.76550287 -2.1268237 3.5194073 2.7144 0.9112764 -0.98980445 -0.95559007 -0.39766592 1.2190759 -2.7658267 -0.21762457 -0.5972114 -0.2644189 2.1575952 1.1967338 1.7184209 0.20979866 -0.10850089 1.792389 0.36161894 1.1893207 0.32281086 0.030347217 1.9898239 1.1751922 3.4361322 -0.0058464063 -2.0695198 0.115331955 -1.4960237 -0.47405148 1.0385702 -0.13604827 -0.32546473 -0.7767315 -1.846333 -1.8849393 2.336882 -2.5157876 -0.35562336 -0.94504446 -0.41649628 0.581217 1.597026 0.4105358 -2.9934669 -2.194422 -3.3967605 0.5121479 -1.4404976 -0.60919863 0.75149626 -0.31079265 1.3101757 -0.19625354 0.245026 -1.1583436 -1.0918158 -0.4246405 -0.315186 0.48130774 0.49294916 0.9223873 -0.38288715 -1.5867431 -0.19279309 3.2038891 1.8224182 -0.04827228 -0.60736614 2.276478 1.9252908 0.020591952 3.0852113 -1.7327402 0.9054117 -3.225592 -2.0557346 3.0512714 0.8482387 -1.5244904 -0.37434307 -0.41987565 -1.9396505 -0.47147053 -0.59451735 0.31713524 0.9183345
505 -0.033475373 0.5053387 -2.2780168 -1.0354652 -1.6183863 1.1955669 -1.5022624 0.47933626 -0.86663157 0.6318383 -1.6621698 4.2304435 2.0786498 0.62613493 -1.2275879 -0.04737387 -1.3500621 -3.032237 0.5730879 0.94304055 -0.46204078 1.3748225 0.89897805 1.5355802 0.7786082 1.287056 0.36156148 -1.8399644 1.2673768 -3.210527 0.7942873 1.5549022 1.148637 0.9829856 -1.5931431 -0.21143875 -0.25202352 1.3678058 -1.9597336 1.0945272 0.6091377 1.1166466 -0.6894493 -0.9672934 1.508528 0.92320657 -2.0768735 -2.9929214 2.6650176 -0.839967 -0.4336565 -0.8826076 -1.4444004 0.8627147 0.09448264 1.0353069 0.19849719 1.5336566 2.3050234 1.619707 0.8885473 2.4038684 0.6114155 1.6292044 0.15580085 1.2639339 -1.4037372 0.9676752 -1.9648206 0.6441446 0.4840041 0.54773676 0.10465156 1.8756884 -0.42903066 -0.9825558 -0.8478792 4.2222896 -0.11404049 -1.9770925 -3.0723393 -1.8105623 -1.1727188 0.98316324 -1.8179917 -0.49474272 -0.025588406 -1.2521722 3.508677 -0.5795783 0.76296014 -1.5272354 -1.648061 1.5316492 -1.7347932 0.6493327 -3.145388 -5.0709887 0.44760892 1.7897208 -0.4506371 0.8730886 0.29167566 1.1547401 -0.1733629 1.3699201 2.5706096 0.10782511 -2.0822563 -0.045659095 -0.006146207 2.5746875 0.51937574 2.1033094 -1.0870361 -0.7283316 -0.9954402 0.31895033 2.5037544 1.8276131 -2.2590797 0.4286173 -2.4213145 -0.28139907 1.6534333 1.327832 1.8379183 -0.7772314
509 -3.0184762 0.68636924 -1.3260068 -1.9133885 -2.6887987 0.78051454 -0.682901 0.71688235 2.7583375 -1.4178125 -2.8403087 -0.9332218 0.7788884 0.49848548 2.109438 1.216581 -1.4742147 -2.000043 -0.7508739 0.097780295 0.5779644 -0.5447907 -3.3879094 -2.121372 0.4832647 2.150705 1.4083028 -1.5729402 -0.20157005 1.9442595 0.68617547 -1.0606312 1.5487518 1.7469474 -0.24380031 -0.49469474 -1.0308461 1.7264465 2.7557876 -1.4210558 0.6478015 1.9951352 -0.48831615 1.8747967 1.9309037 -0.516183 -1.3137655 0.072769344 1.3772562 -3.7754283 -3.6315885 0.5683693 -1.8539171 4.1277328 -2.5096004 -0.70403236 0.7766629 -1.7479028 3.4201412 0.025318665 1.9425817 0.03778318 -1.4124879 1.3688272 1.3453662 3.7699397 2.1882036 2.1056654 -2.6080544 -2.0572324 1.0107052 -0.08830663 1.8009026 1.7155389 -0.53012043 0.48909065 -0.26447102 0.8470644 -2.2880795 -2.3422856 -0.96235776 0.5359115 -0.2920608 1.1202605 -1.7318008 -0.22147249 -2.087772 -2.876981 0.006814441 2.3397722 0.7139526 -0.9992617 -0.2637192 1.5013388 -0.1423349 -0.07885445 0.6428421 -2.6803904 -0.38881296 -1.7973849 1.0579886 -3.30471 1.4092913 -0.37675518 -0.13016157 -1.2387073 2.4758253 1.0537692 0.07822239 1.7547079 0.82057154 1.6735215 -0.7700973 1.7411326 -2.4450924 0.3986743 -0.21456422 0.042757 2.2223399 1.3619142 -2.1045191 -1.8267021 -0.54750574 -1.073348 -0.25482592 -2.9615996 -0.77785563 0.92780185
549 -2.6056812 -0.43502638 0.8221797 -0.96778667 -1.4602358 0.48191872 0.27349168 0.36951315 -0.50823736 -1.3710818 0.18997094 0.06688067 0.88147837 2.031287 1.0851867 2.006918 -1.1354529 -0.81658477 0.5764606 1.1598296 -0.5668343 -1.9084079 -1.0420535 -2.0484884 -0.15049489 0.5600354 1.743641 3.193178 2.1506083 -3.3796453 2.082249 2.1197543 -0.90958446 3.265849 1.4375073 1.5867078 0.8378347 -0.7343479 1.7814388 0.6410796 -1.0570709 5.0038433 -0.22052261 4.488648 0.57281435 1.0946766 -1.3120005 0.15688162 -1.4314287 -2.5574305 0.1206065 2.2219102 -1.526211 4.520822 -1.6770848 1.7484863 0.9134264 3.404916 1.8282197 0.8846064 0.54883415 0.5306927 1.8398672 3.797787 -0.25946 2.1543024 0.2797825 -2.2376037 1.7987851 0.8195777 -0.3258606 -1.6362606 1.5067952 -0.8004099 -0.5856636 1.2551049 0.47646442 0.9767459 -0.5623693 -0.75025964 0.7976861 -2.099313 2.1052558 0.3864544 0.92146486 -0.584343 -2.5176322 1.9891272 1.6837395 -0.716044 1.7854544 1.3424525 -2.2223902 0.9193553 -0.43494648 -1.105767 3.7847695 0.12163347 -0.36491024 0.296907 -0.0070587336 0.09362526 0.15497884 0.84513783 -2.6183543 0.5434172 1.8287096 -2.6438093 0.13113591 0.60172176 0.91630805 2.1153374 0.6333087 1.7623453 -1.0313836 -1.9410477 0.31551147 -2.3676605 1.6129676 0.48542342 -1.5849503 1.8225318 -0.5924763 -1.1035789 -1.3908298 1.3014185 -0.44092518 1.2055508
517 0.83578426 0.0588897 -1.3836926 -1.769124 0.6986673 -0.55254406 -0.051068265 -1.3195946 0.64928913 0.9499697 -0.3111834 0.31706074 2.8858473 0.26456836 0.90373766 1.1750201 -1.0892327 -1.2931185 0.5227654 4.0796137 1.89395 -2.1587915 2.6554065 -0.16601212 1.7019676 1.683013 -1.2439344 1.1373022 -0.45603403 -1.7900461 1.4373486 1.7240615 1.6308956 -0.39239526 0.67568904 -0.55342185 2.1445508 -1.0477802 0.49092793 -1.137967 -1.0037491 0.32630643 2.8974195 2.5044396 -0.9482934 0.7274496 -1.2166193 -1.7800413 0.4912601 -0.35037643 -1.4750471 -0.268366 0.17426589 0.86741424 -0.48207 2.0413785 0.51091474 0.27098575 3.131525 1.1906505 2.9142222 1.3929882 0.4340209 2.25975 -0.29033613 1.659061 -1.1098275 -0.15343674 0.50199276 0.94026965 1.3857296 -1.141559 1.2313416 -0.4067776 -0.21022713 -1.5121944 -1.4007267 2.5078716 -0.9765987 0.38223588 -3.0010858 -0.47988835 1.3298987 -0.43132293 -0.19782788 -1.2950224 -0.0118214665 -0.15845841 2.6159568 1.2136493 1.4153888 -0.5239789 -2.3993003 -1.1824622 1.6350383 -0.5821907 1.4912572 -1.497502 2.702213 -2.2948112 0.26471487 -2.3002331 1.8914572 -0.12890646 0.26018676 0.61663306 2.980739 -3.0714092 -0.0011706771 -0.27395794 0.11012534 1.3022096 -0.8318688 -0.3836585 -0.8731932 0.44363052 -0.8064146 -2.7713075 2.7601302 0.6581987 0.51435333 0.75983924 -1.5889163 -2.575822 1.60526 0.17069592 -1.3058892 -1.4386036
1093 -1.2945975 -0.5638533 0.8415388 -2.086765 0.051717125 -1.1646359 -1.515191 -0.65598714 -0.013776426 -0.6093666 0.4618745 0.971879 0.07909169 -0.52446246 0.18126947 3.3517375 -0.7613718 -0.4144656 0.22172897 3.2952733 -0.8813062 -0.4439586 -0.84835905 -0.058444433 -0.30950788 -0.4365273 2.0052047 0.15969922 -0.24294601 -1.7865608 1.3011539 0.8188312 0.62960714 -1.5804882 -0.39275667 0.12545824 -0.36940238 -0.97001463 2.2633462 -1.2005476 0.74898064 1.6244444 3.2340853 0.5309696 -1.8249257 1.1667545 -2.182997 -2.9971797 -0.21495564 -2.3802407 -0.2338517 -1.495223 -1.0205158 3.1392915 -1.3246982 0.72509044 0.49467617 0.7776662 0.7840741 1.5666475 1.8104037 0.060245417 -0.19538788 -0.8951473 2.8338156 2.8427765 1.2266202 -2.0140443 0.27174926 -0.22967725 -0.26380432 -1.8122599 -0.13064095 -1.1043445 1.2687285 1.5428933 -0.8167262 1.913363 -1.4484801 0.19028032 -0.85543287 -2.1226711 -0.5021456 0.844514 -1.7424984 -0.74788815 -0.38355017 -1.0104122 0.40854406 -0.50891334 0.24494892 1.0675354 -1.7375517 0.5066342 -0.89105684 2.4318867 -1.2643734 -1.5248969 -0.24148995 -0.36591616 -1.7613372 -0.69282585 0.27844796 0.41923925 -0.67019737 1.0010709 1.689308 -1.1147746 0.18332177 -0.08112608 2.5818012 1.8714354 -0.94413775 0.7624087 -1.0713937 0.88137144 -2.8066733 -2.4001892 3.270646 -1.6738923 -0.7344809 -1.4863653 -0.15383206 1.9860395 0.6600213 -0.35249785 -1.1337336 0.21474274
